city,dim_1,dim_2,dim_3,dim_4,dim_5,dim_6,dim_7,dim_8,dim_9,dim_10
Chula,0.006520769,-0.008975257,0.010581864,-0.0010018363,0.025317477,0.0063444152,0.004997525,0.015000836,0.00848594,0.0058061196
LittleSturgeon,-0.01583129,-0.008546393,0.010930926,0.011813265,0.010930307,-0.011479286,-0.046862435,-0.022938497,-0.032324154,-0.024814518
Adair,0.017539127,-0.015994126,0.01617402,0.017701253,0.025551157,-0.008345294,0.0034090695,0.016493555,-0.006122471,0.010111422
Hiseville,-0.0051201186,0.003467113,-0.009972844,0.011109152,0.008782455,0.009295713,0.017531006,0.018253257,0.017602134,0.007509145
Halliday,-0.01388666,-0.03089289,0.025840782,-0.009989136,-0.015162039,-0.011822204,-0.018108878,0.015234796,0.0014462869,-0.0072581936
VanWert,0.013480377,-0.0203765,0.009766207,0.0043519977,0.031818382,0.010720127,0.007235045,0.019560315,0.017365392,0.015174491
Kenilworth,-0.008902428,-0.008115146,0.006366542,-0.02092811,-0.005236026,-0.0015933238,-0.004589143,0.014308487,0.0047688675,-0.017453082
Edgerton,0.0028450903,-0.017871618,0.029078867,-0.016724959,-0.021041483,0.006792324,-0.007716505,0.008428032,0.0052820025,-0.010409533
Chupadero,-0.018740188,-0.005814258,0.0019592615,-0.01865173,0.006236237,0.0021278712,-0.0021267163,0.012060643,-0.015156115,-0.0054839663
Storden,0.017894642,-0.042901672,0.0130478935,0.0072077247,0.014474419,0.015045695,-0.009174364,0.01425565,0.018742137,0.012094266
Reevesville,-0.02462112,-0.0036116864,-0.014575008,0.009757826,-0.009488327,0.002104927,0.00073386333,0.014214607,-0.00016775727,0.00048199287
Spurgeon,-0.00034752302,0.0034570799,0.002131723,0.024406577,0.02360336,0.0048427237,0.0061706607,0.017101297,-0.0063507,0.0022946515
Clutier,0.048639335,-0.02825627,-0.0038440854,0.024232486,0.040822316,0.011338728,-0.0023468707,0.02103826,0.016094994,0.03978645
KarnsCity,-0.017918587,0.0063080643,0.0127307065,0.022900647,0.012647315,-0.0065509034,0.023733372,-0.020499725,-0.0033187405,-0.04526441
Smolan,-0.0011553405,-0.011825066,0.014908138,-0.012641181,0.00437396,0.0010570731,-0.009118695,0.02164775,0.010447299,0.014199123
Moorhead,0.02418967,-0.033402845,0.014111726,0.0064783487,0.02785357,0.017734265,0.0031641885,0.016367251,0.02627115,0.028825665
Pennington,-0.019743497,-0.002902884,-0.014537058,-0.010807423,0.0045244694,0.025091454,0.00979332,0.013943183,0.008158465,0.018789105
GoldHill,-0.019607753,-0.014471956,0.028922105,-0.015272656,-0.036762327,0.019363748,-0.016145809,0.007387433,-0.017150493,-0.013503577
Belk,-0.01898824,0.0012037365,-0.017822536,-0.0070191054,0.0035409012,0.018966643,0.010229545,0.014827161,0.015226846,0.014386233
Madison,-0.012389788,-0.0028749406,-0.044922538,0.019271106,-0.004936522,0.028071748,-0.0064939843,-0.029524582,0.009856992,-0.030281179
Halifax,-0.011726634,-0.0046096942,-0.019838795,0.010507072,0.00013172068,0.02204453,0.022061275,-0.006786214,0.014358851,-0.022655234
Acampo,0.01221956,0.035207722,0.005635145,-0.026688421,0.008671956,-0.041495293,-0.0003767917,0.02562186,0.061897885,-0.02900839
BelleMead,0.039518606,0.038094196,0.01942269,-0.02537682,0.012237003,0.060546678,0.09687937,-0.11934192,0.026162699,0.004468329
Canadian,-0.006960638,-0.008560283,0.0016449786,-0.024676409,0.0016657414,0.01746933,0.01794468,0.010116716,0.004747098,0.013656059
Froid,-0.014313073,-0.029306306,0.031201312,-0.0131180305,-0.014535183,-0.009798543,-0.020571833,0.01351454,-0.0009031814,-0.0105623575
Buncombe,0.005446792,-0.0018500076,-0.0024245032,0.008251032,0.014167604,0.005977283,-2.3924746e-05,0.019280028,0.0030887958,0.012991369
Frederika,0.045432225,-0.029858803,-0.0057827327,0.025927268,0.04163398,0.0059979837,-0.013099061,0.016708419,0.007090777,0.03479993
Cameron,-0.0342021,-0.0040805293,-0.0048220563,-0.022724776,-0.0006315502,0.014417412,-0.0005422615,0.009125722,-0.020267155,0.030186638
Black,-0.030761003,-0.0011064647,-0.011743995,-0.0020871132,-0.00901912,0.005833749,-0.009509011,0.009434869,-0.008954639,0.016941933
Standard,0.037160084,-0.02354733,0.009032294,0.038454857,0.03431276,-0.016999917,-0.006617881,0.018893307,-0.010460725,0.02546985
Goree,-0.021990692,0.0024593002,0.008348132,-0.019040352,0.005234849,0.0126219345,0.009748777,0.0048822677,-0.021237295,0.022484206
HayesCenter,-0.0045658103,-0.027029583,0.017743766,-0.0034544384,-0.0043228185,0.009375289,-0.009936006,0.014241892,0.00881631,0.0093217585
Tuscumbia,0.005854297,-0.013296798,0.009428252,-0.012863822,0.009650044,0.008558153,0.0042694346,0.017649386,0.010379968,0.005165661
Wellman,-0.029335018,0.006306645,0.00012003258,-0.020335551,0.0012351677,0.01576425,-0.0015651244,0.0067580794,-0.02216382,0.010270528
BigIsland,-0.0063969325,-0.0064301863,-0.00072756014,-0.0014345709,0.0032812033,0.021532629,0.029713353,-0.007193955,0.020892603,-0.03582985
Lunenburg,-0.008882205,-0.010387649,-0.014073591,0.0020924234,0.004168981,0.028263766,0.027863692,-0.0095031075,0.016625337,-0.028423868
YeehawJunction,-0.035883535,-0.0047186855,0.0068217013,-0.009961234,-0.025217248,-0.021950493,-0.01514165,0.0051400843,-0.028361576,0.014413852
CollegeSprings,0.015161578,-0.023408735,0.016065305,-0.0023991677,0.02888995,0.013352698,-0.0013948306,0.021030068,0.016162798,0.020978348
Brinson,-0.032233734,-0.00019355491,-0.01246867,-0.002361919,-0.012825718,-0.002499452,-0.016215708,0.01261263,-0.014993437,0.014112436
FallingSpring,-0.01646893,-0.012114869,0.008439417,-0.0014315442,-0.00037839077,0.017512806,0.032251116,-0.0020415448,0.016437555,-0.025008023
Gary,-0.0023090832,-0.02840845,0.004620455,-0.0139854085,0.01062175,0.010544344,-0.018465873,0.019588793,0.014574739,-0.0017660649
Vermilion,0.014667783,-0.0049100327,0.01130142,0.027401531,0.027157577,0.0001965724,0.00060449995,0.018005006,-0.012481737,0.011930423
GuideRock,0.00708655,-0.03108797,0.014545501,-0.0057925656,-0.00019104965,0.01567917,-0.00067084364,0.01698758,0.02212304,0.024187675
Nauvoo,-0.020972736,0.003565389,-0.016573934,0.0027064239,-0.0010005529,0.015137071,0.007224816,0.012820143,0.01663094,0.008789514
Braman,-0.0037683942,-0.0057724174,0.0146954125,-0.007619243,0.022739097,0.013672881,0.0054525477,0.015110079,0.0017146859,0.015289703
Industry,0.045016497,-0.052551445,-0.086969584,-0.025902295,0.049508743,-0.09600606,0.044943854,0.030821668,0.13584091,-0.00060773257
HaywoodCity,0.0005005038,-0.0005055246,-0.0024737886,0.014432247,0.017187346,0.0076176976,-0.0075222366,0.021875659,-0.003396971,0.022834174
BluewaterAcres,-0.030749014,-0.0005212304,0.021542672,-0.022520257,-0.011851468,-0.0008128059,-0.021625377,0.0097256005,-0.009221746,-0.014746736
YellowBluff,-0.024831364,-0.0033207522,-0.012388824,-0.007375787,0.00015557185,0.021659736,0.0036693893,0.009238778,0.003780101,0.013773774
EggHarbor,-0.025683913,-0.0038036127,0.015289991,0.010272691,0.002586865,-0.012157599,-0.046414584,-0.025993655,-0.04102338,-0.02705894
Tappen,-0.008342071,-0.03109719,0.01744373,-0.010462873,-0.008560272,-0.006282284,-0.017843757,0.016841393,0.008927502,-0.0026966007
Matoaka,-0.018568179,-0.0076696677,-0.0029402755,0.0016074185,-0.0013015355,0.020086747,0.019066645,0.0017794016,0.013233439,-0.016797919
Koliganek,-0.023990193,-0.014320153,0.032507762,-0.011990378,-0.014994354,-0.011128602,-0.018256782,0.005570116,-0.011888735,-0.008618003
Surrency,-0.029611606,-0.0037366282,-0.01425645,0.0042567067,-0.017163945,-0.0038703599,-0.005765217,0.013622315,-0.0071170307,0.00514645
TrailSide,0.0027125743,-0.016277276,-0.013083938,-0.028795244,0.0034394236,-0.0042580143,-0.017031943,0.029801328,-0.008095608,0.016561199
DeSmet,0.0077301194,-0.01575109,0.021479726,-0.020198707,-0.033912886,-0.003706993,-0.018682716,0.018084288,-0.0052974503,-0.022280041
PineVillage,0.025979267,-0.012381559,0.013496614,0.0296034,0.021525076,-0.0009651142,0.019311998,0.008848071,-0.012710217,0.019425688
Seaton,0.030958518,-0.022086024,0.008750829,0.021627925,0.034669876,-0.010308338,-0.0023479753,0.02254406,0.009747151,0.024701918
SanJon,-0.029547658,0.002529387,0.010984089,-0.018012552,-0.001910833,0.013709581,-0.0024377978,0.0011001298,-0.016561773,0.008027131
St.Johns,-0.00094539823,-0.004099572,0.017421976,0.0336605,0.018413456,-0.007036692,0.018047156,1.50175765e-05,-0.0069657736,-0.006781164
Garland,0.004875217,-0.011615456,0.012322058,-0.015412329,-0.008744436,0.011740259,0.006883224,0.018279085,0.01602896,-0.011139758
Highwood,-0.0065768575,-0.016341718,0.026707433,-0.005345528,-0.025831193,0.006737372,0.0038859078,0.0018931194,0.0019151133,-0.008411692
WhiteMountain,-0.023900427,-0.013030788,0.03205627,-0.016892033,-0.016581133,-0.004596551,-0.02047128,0.0022685197,-0.017844535,-0.007919242
Barnett,0.007965579,-0.013291675,0.01094026,-0.0083085615,0.011815857,0.006603625,0.005219295,0.019077204,0.009648805,0.006130771
Glendo,-0.00635021,-0.021837523,0.028997652,-0.012594677,-0.020952886,0.0148647735,-0.00639142,0.005842132,-0.00036916882,-0.007995531
Bulpitt,0.017856857,-0.005985703,0.008606839,0.0151340235,0.025330734,-0.00053948903,-0.013916067,0.021912498,-0.009990382,0.017400557
Hanston,-0.010162034,-0.010673071,0.016632762,-0.007469885,-0.0023841662,0.0054686116,-0.008921888,0.0090443,-0.0008925717,0.014442778
Rollins,0.017108478,-0.0105402125,0.026220566,-0.04103897,-0.03295827,-0.001280549,-0.014904919,0.036703322,0.001734914,-0.014795024
Chugwater,-0.012452155,-0.018483559,0.0338179,-0.013543141,-0.027383776,0.01119702,-0.0003582798,0.0019795364,-0.00382534,-0.0066223475
Haviland,0.0074530854,-0.0069498145,0.021622315,0.04343946,0.02645108,-0.010325284,0.017424142,-0.0087970365,-0.018110685,-0.004330083
Hull,-0.022674691,-0.0044998187,-0.024201874,-0.0002011992,-0.01570189,0.010093789,-0.0024658593,0.008655691,0.010490732,-0.004432623
Alvord,0.025073443,-0.042255778,0.0172878,0.008100857,0.022920761,0.017837133,-0.007699664,0.015558093,0.01797036,0.015187562
Stoutland,0.0032363017,-0.01235795,0.0077555105,-0.013318704,0.008577177,0.010777617,0.0018232194,0.018562995,0.0091543915,0.00795846
Grantville,0.0046635605,-0.006479988,0.0072608795,-0.01175253,0.018958542,0.0051416517,-0.004476481,0.02368725,0.007653228,0.014964999
Samburg,-0.0013519553,0.0025018002,-0.004526405,0.013138706,0.010526219,0.0015756586,-0.001376776,0.021790326,0.00041743732,0.027843393
Keensburg,0.00408122,0.007682135,0.00808586,0.028423747,0.026938329,0.0022808907,0.00055674545,0.020346526,-0.007621125,0.008548184
DesLacs,-0.012328171,-0.029185863,0.028028902,-0.011939459,-0.013283732,-0.012012215,-0.020843912,0.014352993,-0.0024952202,-0.008726214
SouthSalem,-0.002198279,0.00043997346,-0.0009744908,0.03272389,0.014572738,0.003529187,0.014851433,0.00967041,0.002250034,-0.007601948
Nathalie,-0.008705246,-0.008820353,-0.008851109,-0.0044815643,0.0024178054,0.0256379,0.02665632,-0.0070863976,0.02115003,-0.027403958
Tenstrike,-0.0033046461,-0.024692234,0.0011155413,-0.005928944,0.010586759,0.008624116,-0.01915984,0.013440402,0.009182134,-0.008435014
Tokeland,-0.009162664,-0.0054894323,0.029132305,-0.030695261,-0.04787085,-0.006801634,-0.010912275,0.014442087,-0.007685155,-0.022759113
Sellers,-0.018008959,0.0031794393,-0.019628916,0.011563836,-0.014449977,-0.00035252795,0.002965783,0.01110053,0.005282408,-0.0076995306
Mosby,0.0046363105,-0.0059664515,0.005664258,0.0015090281,0.034802098,0.0037934743,0.0051917476,0.022842243,0.0062405393,0.015735764
Oakdale,0.008398296,-0.0026490327,0.008678545,-0.00010575168,0.023755386,0.009213986,0.0018679391,0.021596627,-0.0039533875,0.015931807
Torreon,-0.027963838,-0.0003217552,0.0004687532,-0.025749305,0.003586094,0.0008621585,-0.014704313,0.009355057,-0.005456084,-0.00441707
Blairsburg,0.04469409,-0.033181485,-0.003281209,0.019135503,0.03657407,0.016221719,-0.004677584,0.019343097,0.015128552,0.036739253
Barkeyville,-0.018273989,0.0040138764,0.007986397,0.026939524,0.011990545,-0.005387366,0.022763623,-0.017447984,-0.0073042284,-0.04623533
Parkersburg,0.0055009276,0.0023638823,0.010577458,0.023014558,0.025673334,0.0008235906,-0.001808466,0.019282449,-0.010639109,0.00893681
Hallwood,-0.024104388,-0.0025083385,-0.029146012,0.012909693,-0.008681842,0.006890914,-0.011689876,-0.00923586,0.004509582,-0.025298554
Westcreek,-0.015674846,-0.014415763,0.02769225,-0.0144097265,-0.025143687,0.0077719614,-0.013035359,0.0050191754,-0.01214856,-0.015000484
Amasa,-0.013912245,-0.013165982,0.0117711155,0.0012721337,0.0029659087,-0.0013448362,-0.03316437,-0.008797186,-0.015285258,-0.021075161
Jacksonport,0.0012655064,-0.006916543,-0.0050210394,0.013134832,0.007168154,0.0032575608,-0.006468944,0.019312829,0.0032404247,0.035924405
Lyden,-0.022838153,-0.0034966704,0.002466703,-0.02055695,0.0065016425,0.0011221612,-0.0014391055,0.0054228525,-0.0061972574,-0.010046798
Phillipsburg,0.00141755,-0.011853468,0.006900502,-0.014583218,0.0072119473,0.011442529,0.0021954784,0.017453084,0.008351965,0.010059135
Macy,0.008403628,-0.0011545516,0.016750362,0.036686182,0.022130279,-0.015395275,0.005550773,0.003394083,-0.012393889,0.0025402885
Lewellen,-0.0042521753,-0.028661449,0.020737752,-0.0031064777,-0.0053230724,0.008429752,-0.005990768,0.0126996385,0.0012393475,0.0049540065
Autryville,-0.018084824,0.0015423236,-0.025342124,0.010211589,-0.0082304515,0.0020804782,0.0046406803,0.0055356473,0.012711108,-0.008561308
Belspring,-0.012196052,-0.0031724519,0.0066423845,-0.00056099135,-0.0015451969,0.018220628,0.01677745,-0.0040924805,0.010292538,-0.037424892
Butters,-0.018975101,-0.0033573331,-0.021833345,0.008146996,-0.012567846,-0.00047118205,0.0018385713,0.011445769,0.0068599544,-0.00745787
BlodgettMills,-0.012346131,-0.0030202947,0.024326723,-0.015966916,-0.004864827,0.0042164144,0.019268524,-0.022561163,-0.0029692187,-0.02587387
Edenborn,-0.0038196442,-0.0073407968,-0.01387782,0.035286307,0.003268934,0.011910489,0.04233813,-0.00356041,0.019264154,-0.013936313
HancocksBridge,0.0074311136,6.202143e-05,-0.072230205,0.016861552,0.010133567,0.08063445,0.015751634,-0.06272071,0.025417965,-0.044704307
Grayling,-0.016427582,-0.016438372,0.027388845,-0.0155315455,-0.0166166,-0.007004962,-0.007894975,0.001744869,-0.006519079,-0.009251672
Kellyton,-0.026805865,0.00039517693,-0.017797416,-0.01014055,-0.0036710517,0.017900018,0.008527699,0.00882184,0.006876714,0.008352185
Independence,-0.01826946,-0.0038251828,0.027953003,-0.014718124,-0.018163173,-0.009893801,-0.019824078,0.0024230252,-0.003337516,-0.030600928
Peterson,0.020871999,-0.025614956,-0.0038386052,0.006997889,0.017385794,0.0011576631,-0.015808629,0.0075014783,0.0027215746,0.009599725
Thompsonville,-0.046309065,-0.0020481402,0.017893134,-0.022319898,-0.007102144,0.011375073,0.0010575657,-0.0018535188,-0.031284668,0.025567919
Fordville,-0.0034577984,-0.039209135,0.013074921,-0.013756061,0.0012533042,-0.0002874732,-0.02571194,0.01888757,0.0063543236,0.0007219312
Goodlow,-0.017067317,0.0015205411,-0.0044931145,-0.032768678,0.011884702,0.020630267,0.016541995,0.009293838,-0.016778175,0.018377652
SilverCreek,-0.023721972,-0.005536629,-0.012418382,-0.015926158,0.0027731585,0.021079458,0.008027068,0.013496576,-0.0023481243,0.02124187
Jeff,-0.009864108,-0.0026948627,-0.009459104,0.0054923296,-0.0022175908,0.020546384,0.02493715,0.009492216,0.021309337,-0.0019510511
Westgate,0.034763657,-0.0271582,-0.007267792,0.024225015,0.036164064,0.001830326,-0.011584518,0.013445475,0.003744525,0.027641898
Aucilla,-0.035013277,-0.0031643875,-0.0011809685,-0.007713352,-0.0054867715,-0.0054219314,-0.01071064,0.013443131,-0.013009506,0.011209301
Batchtown,0.020941723,0.00657927,0.006190108,0.044580642,0.04402795,-0.018344942,-0.0111339735,0.03513858,-0.0047225337,0.019580033
Cañon,-0.027131146,-0.0011145737,0.009409086,-0.022074128,-0.003695359,0.0028171649,-0.018997664,0.012935651,-0.016874358,-0.002962152
Ellsworth,0.020455116,-0.013577196,0.0032320167,0.024094852,0.025562786,-0.004150955,-0.0093915975,0.01869922,-0.012794271,0.018920697
Loachapoka,-0.02981577,0.0035183148,-0.016430315,-0.003201289,-0.004226735,0.010703449,0.0025231645,0.0060260524,0.003481657,0.010083158
Bienville,-0.014263738,-0.0055325925,-0.014307911,-0.018039467,0.0028861992,0.020446656,0.012900173,0.013276179,0.0016663877,0.02334344
NorthRobinson,-0.0016517697,-0.0069596577,0.015832921,0.037126433,0.023451522,-0.0077171656,0.013735521,-0.0037059386,-0.010834668,-0.01129626
Ewing,-0.008826944,0.0037773994,-0.008085446,-0.0009831074,-0.00044989766,0.015712587,0.016171291,0.0035444708,0.020855298,-0.012099057
Taylorsville,-0.008856801,0.0022631804,0.021918137,-0.021571217,-0.010279906,-0.010414587,-0.017449085,0.011517085,0.010299533,-0.026171783
BayCenter,-0.014696694,-0.005817005,0.028359769,-0.029918382,-0.043602545,-0.005007236,-0.018362692,0.0148453005,-0.012870255,-0.01807657
Petrolia,-0.017918587,0.0063080643,0.0127307065,0.022900647,0.012647315,-0.0065509034,0.023733372,-0.020499725,-0.0033187405,-0.04526441
Trenton,-0.022716878,-0.0052006226,-0.007568339,0.0064519187,-0.008187017,0.004334601,-0.004966962,0.004481349,-0.0007048658,-0.0058939927
NewEdinburg,-0.0015129024,-0.015175217,-0.01073145,-0.003898856,0.0016638994,0.018484993,0.016660508,0.013403387,0.010387888,0.024804262
PaintRock,-0.017473675,0.009892525,-0.02005162,-0.0021902642,-0.0013445196,0.012401067,0.0020733604,0.011779085,0.012707523,0.015687523
Pittsburg,-0.0072785555,-0.008174013,0.00026671216,-0.023139084,0.00045222035,0.01949378,0.018509012,0.0065662535,0.004133808,0.01275417
MillShoals,0.007873816,0.0044819852,0.00841709,0.015591396,0.023361012,0.0031400924,-0.0061132354,0.023391696,-0.0041289907,0.018597271
Broaddus,-0.019826086,-0.006769851,-0.0058751632,-0.017797237,-0.005012399,0.01699566,0.005369193,0.009094031,-0.004817154,0.01658353
FishingCreek,-0.012115703,-0.0029561047,-0.039401982,0.016886903,-0.00127945,0.026473625,0.0031348628,-0.020901294,0.015445621,-0.02365073
Vaughnsville,0.004087792,-0.0052716695,0.019992992,0.045828655,0.022282723,-0.012839595,0.019927124,-0.005349453,-0.016101416,-0.005521792
CoffeeCreek,-0.0064521553,-0.016044013,0.023516065,-0.024692455,-0.02077212,-0.009080454,-0.024372507,0.015798967,0.0057549803,-0.015770817
O'Kean,-0.00027052872,-0.0028029885,-0.0060981754,0.014911629,0.01078431,0.0026007458,-0.013098682,0.020182818,-0.0043209963,0.03213509
Altona,0.00877816,-0.007575194,0.023779081,0.036718845,0.02263249,-0.015658941,0.009123893,-0.009392805,-0.025975894,-0.005089972
Harrells,-0.020265838,-0.0027053808,-0.023850726,0.012019993,-0.0060880487,0.002186008,0.0024702486,0.009114311,0.009828682,-0.009678426
GardenGrove,0.01286071,-0.019056214,0.008883395,0.0033236505,0.029728489,0.009380012,0.005995288,0.017801574,0.01672567,0.013258447
Lilly,-0.029174345,-0.0013101568,-0.010115094,0.005576022,-0.015383643,0.00086349586,-0.007620346,0.010754852,-0.0061639803,0.005372666
Scotia,-0.029643083,-0.006425511,-0.010405492,0.0044669113,-0.0130416285,-0.0014931845,-0.00039246306,0.0131214475,-0.007888705,-0.0016148075
Blencoe,0.029235369,-0.03863541,0.01634046,0.010467652,0.030948939,0.015378405,0.00674936,0.017741587,0.028146364,0.03178099
Providence,-0.021580448,-0.0026990725,-0.01668496,-0.010692336,0.004665681,0.022688795,0.00858552,0.01276159,0.0061237295,0.01846085
GlenJean,-0.014065711,-0.0066417446,-0.00961945,0.009546999,-0.0011390797,0.01593537,0.024548348,0.004515882,0.016121645,-0.016418679
BearValley,-0.011892054,-0.0028969245,0.023936896,-0.012639866,-0.0077523496,-0.011434313,-0.017139083,0.010573453,0.010891035,-0.013995756
MeireGrove,0.015188899,-0.04482558,-0.008686166,-0.0004006642,0.02015837,0.0073137716,-0.02618689,0.023839304,0.020362245,0.0035039561
SugarMountain,-0.022121673,-0.006000773,-0.0051914765,-0.0037552123,-0.0031924173,0.025573378,0.0154466685,0.0029062203,0.0129585825,-0.008749492
Tyro,-0.0024848785,-0.010496007,0.0065599666,-0.007784723,0.01213172,0.012293192,0.010020986,0.01477023,0.009572339,0.015603482
PecanGap,-0.01389454,0.007947338,-0.011361569,-0.03360304,0.01299854,0.016915588,0.0056957626,0.005566059,-0.005928722,0.028153403
PineGlen,-0.012156349,-0.0031442556,0.023395116,-0.0037599972,0.0040878574,-0.0016660823,0.022383135,-0.022536699,0.0011811212,-0.036352552
Raemon,-0.01432075,0.0051436927,-0.015360605,0.015012575,-0.010835643,-4.644692e-05,0.0032931436,0.004589155,0.008620108,-0.012201444
SummitStation,0.0027903868,0.021501595,0.055737983,-0.028737744,0.005363591,0.008829881,0.04250253,-0.066530645,-0.004876206,-0.023433927
NewtonHamilton,-0.0103973765,-0.004346364,0.018761886,-0.0064905975,0.0046102516,0.004540881,0.026732374,-0.022048121,0.0097114965,-0.034270078
MountCory,0.0036002286,-0.008562644,0.017412938,0.038633592,0.021789523,-0.008165523,0.018393869,-0.006439884,-0.014906779,-0.005436478
Spillertown,0.00830917,0.0023679736,0.0044158297,0.005109677,0.019409686,0.0043544155,0.0021891138,0.023503706,0.00013256446,0.018009292
Eureka,-0.017032607,-0.00017147698,-0.022722278,0.016640523,-0.0070655313,0.0053916415,0.00915815,-0.0011002938,0.0091043115,-0.019016128
Trumbull,0.017876184,-0.0399407,0.016288575,-0.004894446,0.0077879936,0.019214591,0.0016116344,0.019497514,0.028352369,0.036053658
RadarBase,-0.029769916,0.0033486458,0.007573743,-0.023556715,0.0050032684,0.0041329283,0.0013942122,0.005917687,-0.022897415,0.022717388
Volga,0.025393125,-0.02410566,-0.004584878,0.018798798,0.031249985,-0.0035344844,-0.017092548,0.013520375,0.002009415,0.02087268
Zanesfield,-0.0050005116,-0.0039691827,0.018684637,0.027573025,0.019933198,-0.004283152,0.012509557,-0.0011636049,-0.006582846,-0.013319244
Plessis,-0.018835885,-0.004716064,0.011128263,-0.01009496,0.0005250833,0.003346482,0.0064828233,-0.014831119,-0.010368123,-0.025655286
Sugartown,-0.028195858,-0.0060622827,-0.0023643645,-0.017677449,-0.0019888384,0.017032512,-0.00030271243,0.009873071,-0.00857191,0.019032726
Edwardsville,-0.024612796,0.0019552307,-0.015584088,-0.0013464382,-0.0035274494,0.020325279,0.0028004022,0.007498597,0.012895263,0.0017702634
Baylis,0.009466256,-0.009713744,0.0111481985,0.0128047075,0.022910751,-0.0065961187,-0.00039447937,0.019319568,-0.0018320285,0.0098646125
GlenviewManor,0.00583157,0.03522448,-0.030377112,0.06273702,0.026180731,-0.008495692,0.004735556,0.03449359,-0.010177025,0.014003851
Hancock,0.02684104,-0.025574988,0.007771868,0.0042993845,0.03902497,0.023821343,0.006001503,0.020139948,0.02903216,0.031168774
Peck,0.015313859,-0.011803257,0.014602628,-0.026900185,-0.03206475,0.000119719654,-0.01678551,0.026048103,-0.000800736,-0.03328181
Marklesburg,-0.015395876,-0.0029300132,0.0121459635,0.008300779,0.007177561,0.005976687,0.030222965,-0.026941296,0.0061101443,-0.038403045
Donnellson,0.009714177,-1.0589138e-06,0.010152094,0.005711355,0.025458356,0.00367503,-0.008953109,0.018112825,-0.007232893,0.008905708
Burket,0.009800384,-0.0006821713,0.018196162,0.03691578,0.021476941,-0.015261489,0.010614233,0.00030928012,-0.0114760855,0.002804678
Shumway,0.013749663,-0.0033772483,0.008655502,0.020123757,0.024978671,0.0017071534,-0.0045112055,0.018338125,-0.00916852,0.014884504
Okabena,0.019811125,-0.042800125,0.013328871,0.0089859115,0.015935168,0.014954356,-0.008341256,0.014895033,0.019729331,0.013834155
EdgarSprings,0.0046420903,-0.01418361,0.008601427,-0.01464539,0.009615285,0.010392689,0.0012548977,0.016828105,0.009790338,0.00772732
NeckCity,-0.0011168434,-0.0055607636,0.0063882894,-0.02043816,0.015313331,0.012891518,0.0088070845,0.018421356,0.008715386,0.01985245
Hendersonville,-0.007641467,0.00790503,0.0057078497,0.055848192,0.020933805,0.0050127865,0.026119214,-0.029296927,-0.0048211697,-0.044251148
CerroGordo,-0.019132676,-0.0021332477,-0.02109707,0.010555294,-0.013779184,-0.002009959,0.0021721246,0.011929951,0.005698965,-0.0066746706
Cokesbury,-0.015070734,0.0024584057,-0.01588421,0.0068374877,0.00034336187,0.0056311633,0.004687605,0.00921986,0.012368516,0.00077191717
Norwood,-0.03185199,-0.0025732906,0.015974734,0.0014565707,-0.0022381449,-0.010847225,-0.036542177,-0.018558696,-0.031033935,-0.02173058
Scraper,-0.0026744201,-0.007584442,0.0065762526,-0.023419693,0.0065775565,0.0150987,0.015624245,0.013407172,0.0047433986,0.012282834
Winifred,-0.00851492,-0.016045976,0.02856409,-0.0046542897,-0.023998681,0.0010297778,-0.0021132885,0.004361386,0.0025896928,-0.013288668
Munich,-0.009252145,-0.03342678,0.01612709,-0.013835611,-0.00088876084,-0.00016842037,-0.025133397,0.015368136,0.003170215,-0.0025216546
Newtonia,-0.0021514222,-0.009945321,0.0076581147,-0.018835463,0.0041518398,0.014018871,0.008824368,0.014587489,0.008957563,0.010783833
Epworth,-0.0202149,-0.006259518,-0.012419653,-0.004975994,-0.0043122326,0.019706018,0.008430427,0.010689987,0.013927974,-0.0003471449
Jonesville,0.0017110632,-0.0006841625,0.006931175,0.029089527,0.017284501,-0.0033876614,0.007562422,0.018284595,-0.007157005,0.0025050435
Woodburn,0.018444978,-0.020737644,0.008652146,0.0038594813,0.029975874,0.0116744805,0.011212701,0.019711789,0.02273047,0.016650409
Rembrandt,0.03001811,-0.036766816,0.015201063,0.010451173,0.028710824,0.018935475,0.0002697371,0.016415361,0.023210341,0.03007459
OpdykeWest,-0.028246548,0.003726257,0.0028957601,-0.020510277,-0.000464728,0.015683679,-8.432195e-06,0.007980636,-0.021184968,0.0073278677
Ruthville,-0.0068304273,-0.034193218,0.024834014,-0.013011439,-0.012237453,-0.010527259,-0.021834623,0.015391307,-0.0021250027,-0.005553672
Rosewood,-0.006813638,-0.00020529144,0.016218325,0.034018833,0.020093095,-0.0070004985,0.008790718,-0.00056163484,-0.0072622653,-0.013933817
Holbrook,0.00577889,-0.035612214,0.008728513,-0.0013978452,-0.0007602831,0.016024932,-0.0023585036,0.016714683,0.014253669,0.025586873
PortWing,-0.012187323,-0.014444281,0.0040671746,-0.0020913188,0.009139178,0.0008888986,-0.030032763,0.0011197537,-0.008135896,-0.0077701504
Woodside,-0.012566172,-0.0005425558,-0.045407522,0.00979715,-0.0060343975,0.04089687,0.0046697967,-0.033513688,0.018570239,-0.025845835
Poneto,0.004617383,-0.004342819,0.021162258,0.034788836,0.023761922,-0.008407707,0.0090133315,-0.00035551935,-0.013919156,-0.001100074
Munjor,-0.0077923215,-0.0139204245,0.015149733,-0.010923902,-0.0018768605,0.004411948,-0.012355298,0.014492834,0.0044455864,0.012952562
MissionWoods,0.04163248,0.01053055,-0.008855667,-0.011063061,0.03528163,0.0025052968,0.00755921,0.040490277,-0.0066364724,0.038067967
Hortonville,-0.0126379905,0.0017481808,0.039009474,-0.030255392,-0.010883402,-0.0033303783,0.016959958,-0.031770788,-0.0025485845,-0.020770755
Hollis,-0.02294088,-0.017468987,0.0280797,-0.012838837,-0.02486581,-0.005494669,-0.008331917,0.0021072116,-0.00711293,-0.0043989206
Lincolnville,-0.007345443,-0.01000002,0.019168632,-0.008930841,0.008460781,0.0055782287,-0.005855841,0.016477136,0.0075801867,0.011550422
SouthHaven,0.02817494,-0.054283466,-0.013753743,0.016223012,0.035738993,0.0018423327,-0.0359796,0.024458248,0.017026326,0.008726963
Tipton,-0.0005707795,-0.02274146,0.013848055,-0.010726934,-0.0023246754,0.005885901,-0.008330799,0.016857399,0.014219063,0.018845329
Homer,0.028115345,-0.031240486,-0.0064941198,0.008689176,0.02381285,-0.0015151004,-0.022579882,0.010920651,0.0022279879,0.011567529
Lowrys,-0.008357155,0.006237934,-0.011608342,0.0050751856,0.0054976456,0.008465348,0.0025044077,0.005271979,0.020858666,-0.00907966
Yolo,0.023455346,0.058998466,0.029770534,-0.06352226,0.03075785,-0.012742756,-0.013184431,0.015376052,0.08853158,-0.0020524529
Inger,-0.0026857022,-0.023323543,-0.00033676252,-0.0021775868,0.010805242,0.0031241742,-0.021576062,0.010779137,0.0054647266,-0.010087579
TontoVillage,-0.027330987,-0.011032508,0.027962988,-0.014965525,-0.022559255,-0.0023519166,-0.016226735,0.0048880978,-0.011919569,-0.011515831
Mellott,0.02318071,-0.010968104,0.013880899,0.0277906,0.02322837,8.1624836e-05,0.013540104,0.010873344,-0.015444476,0.018925969
Okahumpka,-0.023879461,0.0077464827,-0.00053447846,0.004485234,-0.038651995,-0.030716391,0.011658243,-0.0015859645,-0.021097705,-0.007291746
Onslow,0.03370958,-0.024003835,-0.0048580933,0.030925998,0.042694088,-0.007398164,-0.009378542,0.013998869,0.0018444671,0.026662
Gilbertown,-0.0214416,-0.005736961,-0.009694618,-0.013646067,0.0068887053,0.02458448,0.010035025,0.013028988,0.004441347,0.01508239
BeecherFalls,-0.012133568,-0.0027368884,0.014856805,-0.017958874,-0.018546034,-0.00071828795,-0.0085657025,-0.005663199,0.0044461377,-0.016953805
Copemish,-0.013960515,-0.0037199142,0.0073009576,0.0057875444,0.0076786145,-0.006351213,-0.03387704,-0.015105752,-0.020480102,-0.018403929
Union,-0.006626309,0.013964231,0.028999059,-0.050325118,-0.022117848,-0.0047570216,0.0017378747,-0.032223493,0.00492216,-0.013325483
UnionCenter,0.017199751,-0.024694333,0.00029811263,0.01859233,0.023341753,-0.0077012773,-0.028386958,0.0024092812,-0.006437179,-0.0017789247
PatchGrove,0.021460898,-0.022289477,-0.0035502517,0.018125365,0.02685851,-0.009931059,-0.020679502,0.010441765,0.00030083582,0.013549273
Enville,-0.0013498206,-0.0026602598,-0.0121565955,0.005596396,0.0064340676,0.013414675,0.015080555,0.019015104,0.014601474,0.022346936
Pittsboro,-0.009292538,-0.0040521934,-0.01741493,-0.0061623934,0.0043095844,0.016423933,0.010454131,0.018009093,0.011756458,0.02322328
Leota,0.014332816,-0.04111358,0.013910915,0.008756078,0.02076627,0.012646957,-0.011658303,0.014726052,0.016735388,0.010842806
FortBidwell,-0.009333309,-0.009195734,0.02370697,-0.016318293,-0.016301168,-0.011630624,-0.019826958,0.0068921233,-0.0003701374,-0.01192226
Harpster,-0.0013674023,-0.0078422325,0.01824809,0.040667363,0.02486096,-0.0096108625,0.0150234355,-0.008314077,-0.017727628,-0.015505329
Callensburg,-0.018375589,0.00476708,0.011275666,0.019320589,0.013340988,-0.005343445,0.02104428,-0.019467877,-0.004056085,-0.043458223
Beason,0.020959709,-0.008870789,0.008718649,0.020673374,0.02706274,-0.004057698,-0.014468077,0.021007095,-0.011806933,0.020712383
Queets,-0.017939556,-0.013487779,0.027852762,-0.017328322,-0.030871203,-0.002609977,-0.0155318,0.008709486,-0.012724602,-0.014087356
Winterhaven,-0.015047184,-0.018648539,0.019318368,-0.008114273,-0.029222636,-0.02374824,0.01253701,0.011311084,-0.0078146495,-0.007306065
Reader,-0.0046588825,-0.013626386,-0.008849215,-0.013650365,0.0013618851,0.014207327,0.014664153,0.013591939,0.009855486,0.017999578
WoodyCreek,-0.031708304,0.0020590357,0.021041878,-0.025283327,-0.0060132775,-0.0024316558,-0.026684828,0.005014501,-0.0027545244,-0.016835896
Newry,-0.012153108,-0.00348544,-0.003527844,0.007055199,-0.00062491733,0.003993177,-0.002409379,0.00401671,0.017733576,-0.017487437
Pickrell,0.016944762,-0.033610728,0.013007737,-0.008395174,0.0062334803,0.022751251,0.011831462,0.016047547,0.03245802,0.030124016
Tomales,-0.011236218,0.037848383,0.0006922706,-0.0441669,0.0017031153,-0.0142780505,-0.055970777,0.020284465,0.019553335,-0.010266765
Moscow,0.00082155474,-0.0032600204,-0.00071293104,0.02065394,0.011649569,0.0045431084,0.017787071,0.021160783,0.011970603,-0.004095084
Sheyenne,-0.00923602,-0.03567059,0.01783302,-0.013088051,-0.004154116,-0.0040782127,-0.021742621,0.017874308,0.005745619,-0.003615177
DunnCenter,-0.016490834,-0.03190688,0.023756906,-0.01128372,-0.015108505,-0.01113068,-0.019989556,0.015836567,0.0008982044,-0.006493715
Garey,-0.006144921,0.024346994,0.02804176,-0.024424855,-0.0014659491,-0.029852765,-0.009608774,0.011514044,0.023944976,-0.01397866
Breedsville,0.00026041456,-0.0015537016,0.016115736,0.023457987,0.017800502,-0.020085678,-0.014368901,-0.007724568,-0.01687013,-0.011040573
IronHorse,-0.008480075,0.023322713,0.018589942,-0.03294788,-0.0043715686,-0.010773189,-0.029489303,0.015242072,0.017579315,-0.03473959
IronPost,-0.002826858,-0.004711304,0.0027502591,-0.028568344,0.009595728,0.0154984575,0.014494001,0.013939986,0.0015094454,0.009963274
Wimbledon,-0.0061563584,-0.037955184,0.016521193,-0.011998633,-0.0019342036,-0.0014156837,-0.023614928,0.018826965,0.008520425,-0.0003982596
Forada,0.010458556,-0.03988528,0.0015881308,-0.0015462305,0.017467218,0.0056930194,-0.023863642,0.021432513,0.019075938,0.001212924
Laredo,0.006520769,-0.008975257,0.010581864,-0.0010018363,0.025317477,0.0063444152,0.004997525,0.015000836,0.00848594,0.0058061196
Eunola,-0.030761003,-0.0011064647,-0.011743995,-0.0020871132,-0.00901912,0.005833749,-0.009509011,0.009434869,-0.008954639,0.016941933
Sunset,-0.00023441948,0.0069160005,-0.011068944,0.01709448,0.009301218,-0.005264691,0.008787562,0.031745564,-0.0016774927,0.04951062
Drakesville,0.026852872,-0.01897101,0.010741103,0.005347724,0.030300796,0.005492717,0.0050708293,0.021368159,0.019123696,0.020838981
Exeland,0.0016908945,-0.01841266,-0.0067146486,0.0053925,0.019743783,0.0028841707,-0.03308947,0.00029081292,-0.00413665,-0.0048820097
LittleYork,-0.0012920751,-0.000769411,0.00867637,0.028762354,0.017329603,-0.0018887757,0.011871398,0.014930859,-0.004151238,-0.0023121343
Steptoe,0.017547198,-0.015349772,0.018361552,-0.024526693,-0.039826024,0.0002932027,-0.02150591,0.025398033,-0.0031538762,-0.027914803
LongCreek,-0.0008314566,-0.0019149858,0.014922088,-0.025905894,-0.028488714,0.0031100148,-0.013239776,0.01690965,-0.0011435592,-0.020213773
Starr,-0.013010531,0.0006133317,-0.014415357,0.016121004,0.0060611772,0.005370144,-0.0031234308,0.01140126,0.015518701,-0.0051514716
AmadorCity,-0.0122288205,0.008600193,0.02153332,-0.012484034,-0.010968824,-0.014670156,-0.011196022,0.011130523,0.014003068,-0.014888377
Bremen,0.006647908,0.007804319,-0.011971268,0.015724877,0.01679037,0.014209508,0.014247426,0.02579081,0.014042018,0.02220335
WestLeipsic,0.0061384947,-0.009892293,0.018597744,0.04095992,0.024452537,-0.007414707,0.020224614,-0.010116456,-0.020416118,-0.007518011
Morganville,0.0034629868,-0.021692166,0.014232825,-0.010450286,7.417053e-06,0.008789842,-0.0074512144,0.01902413,0.017126275,0.017524619
Buford,-0.0029464164,0.0025444806,-0.0021378177,0.027902683,0.015551214,0.004120449,0.015400452,0.01617703,0.0052855187,-0.0072309566
Radnor,-0.0064151017,-0.002081869,0.01683053,0.041304287,0.025816528,-0.007966827,0.01019851,-0.01181052,-0.0170079,-0.0231275
FortApache,-0.030406034,-0.00647306,0.023943804,-0.01737026,-0.013752046,-0.0002193451,-0.018656163,0.0017356601,-0.010131097,-0.010327172
BigBay,-0.027357306,-0.010869212,0.020295488,-0.005665666,-0.0077635986,-0.0052607316,-0.035903677,-0.01057702,-0.023213468,-0.01949687
Wawona,-0.020470936,-0.019830437,0.02932801,-0.010031837,-0.02210607,0.0008901578,-0.013572921,0.0046052425,-0.0130068995,-0.013930982
Hughesville,0.0088786315,-0.008641505,0.00855432,-0.0148138935,0.013575541,0.008432099,0.0025769908,0.021515664,0.005473719,0.010320758
Bolckow,0.010053734,-0.016021624,0.014049822,-0.00029209256,0.022365328,0.009361172,0.0005284789,0.018835759,0.009126424,0.014811518
Beattie,0.0064664586,-0.022378037,0.016197007,-0.00950368,0.004413639,0.014609826,-0.0009489168,0.014931245,0.016463503,0.017927574
Atmautluak,-0.024916572,-0.013567731,0.029885815,-0.014836462,-0.01574884,-0.006021817,-0.016621934,0.001902833,-0.014255867,-0.0054490655
Mooreton,0.004070302,-0.042048156,0.01380047,-0.006458382,0.0087839,-0.0001905188,-0.029436218,0.021877771,0.013979066,-0.0012307123
Greenway,-0.001470395,-0.0014079342,-0.0036444366,0.012144924,0.009550158,0.004425433,-0.0097906,0.021472003,-0.0008768063,0.025701886
Herron,-0.003976536,-0.021189637,0.02300024,-0.0095155435,-0.026005447,-0.0034494258,-0.012033129,0.017890695,-0.00014715642,-0.0060311863
Register,-0.02283705,-0.0029968517,-0.011133739,0.013057323,-0.02331159,-0.0042630583,0.003347815,0.010682675,-0.004973798,4.7121197e-05
Brave,-0.0018625887,-0.008543021,-0.007533434,0.032730736,0.0072162,0.011496837,0.043396186,-0.0059586554,0.023207456,-0.023165993
Tiawah,-0.007731758,0.0064399736,0.0033559555,-0.033274435,0.024328424,0.012831306,0.022472875,0.016143948,-0.0030575967,0.01665986
Kalihiwai,-0.027821815,-0.010961629,0.026068492,-0.013109075,-0.022619106,-0.009243813,-0.020727722,0.0032575042,-0.020695701,0.00040944657
EastWaterford,-0.006812735,-0.0055818507,0.02381916,-0.007706761,0.006501639,0.0078741545,0.03272933,-0.02569464,0.010280366,-0.03682524
Tedrow,0.0037833678,-0.011201584,0.022374967,0.04308337,0.022911249,-0.009104226,0.01657565,-0.016943946,-0.028517459,-0.014316324
StudyButte,-0.04835728,-0.00086113776,0.0055627464,-0.011389841,-0.010047603,0.009173559,-0.005349995,0.008860246,-0.02359958,-0.0017177147
Prairieburg,0.0370609,-0.025519034,-0.007838954,0.028769448,0.042608805,-0.003101186,-0.008310982,0.016972186,0.0041328613,0.03128951
Grenola,-0.0060648504,-0.011253415,0.017207025,-0.011631886,0.009036629,0.009874785,0.0026334524,0.012379747,0.0069720806,0.012917855
Elberon,0.048639335,-0.02825627,-0.0038440854,0.024232486,0.040822316,0.011338728,-0.0023468707,0.02103826,0.016094994,0.03978645
Hustler,0.021227902,-0.026701406,-0.001918915,0.018643616,0.024415994,-0.006627007,-0.029845804,0.0027660273,-0.006525412,-0.0015670715
Onaway,0.0052235667,-0.016055463,0.019775625,-0.023469888,-0.028659016,-0.00057984126,-0.022836221,0.016664738,-0.0027928501,-0.025067821
Golden,-0.013723206,-0.0001401892,-0.016118862,-0.003828389,0.003967063,0.015739163,0.01346801,0.015212954,0.010590865,0.018959135
LakeTomahawk,-0.004689664,-0.017941322,0.0038820123,0.0050455052,0.012953639,0.0013760542,-0.035961468,-0.0051025227,-0.009091237,-0.01417455
Northome,-0.0045668646,-0.022745721,-0.0004976801,-0.004090692,0.007959245,0.0032639944,-0.021355277,0.010783918,0.007062991,-0.011096305
Heckscherville,-0.00094234536,0.011763855,0.04029691,-0.017858418,0.0039957846,0.008116119,0.04052079,-0.051152542,-0.0014671113,-0.019877903
WestElkton,-0.0032265238,-0.0041360212,0.015740031,0.040975004,0.02294307,-0.008404314,0.0035209982,-0.0008798062,-0.016155828,-0.014416658
Lopeño,-0.048370153,0.0016444114,0.016592205,-0.024277914,-0.0066534975,0.010775532,4.0471554e-05,-0.0019758707,-0.03437398,0.024271028
Lequire,-0.0035470459,-0.01067435,0.0015919938,-0.024642885,0.002176132,0.021485934,0.022993129,0.011511073,0.0094019,0.013015818
Gurley,-0.0023012452,-0.026373472,0.026411507,-0.007074373,-0.01047495,0.011301502,-0.0002149893,0.010204043,-0.0016749112,0.003935395
WaterValley,0.0019724546,-0.0008362771,-0.007282506,0.00554489,0.013588037,0.006177517,0.0005344356,0.023922324,0.0014867807,0.024788268
Saco,-0.015589157,-0.01626978,0.026583534,-0.009596867,-0.016718289,-0.0076407418,-0.014453597,0.014971153,0.0025175419,-0.014485301
Coral,-0.021545637,0.009480642,-0.005162224,0.031188559,0.014494542,0.0006305649,0.020811247,-0.020543652,0.00093632156,-0.041373774
Beaverton,-0.01763476,0.00031603035,-0.01711283,-0.0032006798,-0.00071489054,0.0175301,0.009598913,0.014591664,0.013003732,0.013572609
Stronach,-0.0138161685,-0.004118651,0.009019737,0.00790306,0.008152512,-0.007206177,-0.033182397,-0.014113968,-0.021936856,-0.01633989
Cool,-0.02351637,0.0010775873,0.008758517,-0.021999719,0.0033648908,0.01230117,0.016809607,0.012257106,-0.021192485,0.029294593
Locustdale,0.001606841,0.007508566,0.039037824,-0.013032732,0.0036315382,0.008884355,0.042701807,-0.051310655,-0.003496107,-0.022200797
Latah,0.010860558,-0.014849735,0.018578505,-0.020741204,-0.036005914,-0.0024438114,-0.020060133,0.021150028,-0.0051167416,-0.02269309
Wren,0.006913605,-0.0052359374,0.021630857,0.039724566,0.025132144,-0.009775199,0.009571305,-0.004439864,-0.019203333,6.327778e-05
HowardCity,0.011298819,-0.040256888,0.01523057,0.003826955,0.008781266,0.018755106,0.006362152,0.0168702,0.027641812,0.028898695
Alligator,-0.0031138945,-0.009214421,-0.018230395,0.013774931,0.00087394536,0.009818763,0.0014033447,0.016000997,-0.002462542,0.039095253
Benson,-0.023933556,-0.005029479,0.00036596134,0.026935555,0.0138774095,0.0066347853,0.02687314,-0.009463482,0.0026774602,-0.03075697
Boxholm,0.045325607,-0.035646208,0.00025302917,0.018907957,0.041744243,0.019389624,0.0037857306,0.02452197,0.02298826,0.03652528
Clawson,-0.014823012,-0.0023354674,0.0028846292,-0.025281426,-0.0029276784,-0.007600276,-0.011345663,0.012436042,0.004409709,-0.022810407
Onycha,-0.030920776,-0.0019151617,-0.009873353,-0.002080091,-0.0058434256,0.009019967,-0.0050579095,0.009779292,-0.009940814,0.016983302
Emmett,0.002277763,-0.02024628,0.013574167,-0.005047397,0.008191967,0.007988233,-0.0050566103,0.015837096,0.012480057,0.0130669065
Hosmer,-0.006595275,-0.035667326,0.020794377,-0.0077635082,-0.008169733,-0.009033206,-0.020873947,0.020650635,0.009329986,0.0017784069
Eldred,0.015724096,-0.004596585,0.00569315,0.032054372,0.032209396,-0.008907786,-0.0061644777,0.025802638,-0.0071873986,0.01562873
TseBonito,-0.026778204,-0.003001657,0.01219429,-0.028084558,-0.007704112,-0.0025133996,-0.017347757,0.014816685,-0.007052785,-0.011674123
Rantoul,0.007866433,-0.008678505,0.013487231,-0.006867531,0.011964529,0.010591635,0.0021906693,0.020722851,0.012559289,0.013848043
Broadway,0.008863082,0.022598477,0.04099105,-0.038400255,-0.0032349427,0.0084357895,0.029888624,-0.06833434,-0.0009894478,-0.008832261
DeepRiver,-0.0027110917,-0.0044929064,0.020878572,-0.030648187,-0.044808436,0.00049049396,-0.009923895,0.02050984,-0.0019322681,-0.030239923
Wing,-0.010297635,-0.032227963,0.018615657,-0.009512588,-0.007072469,-0.008671252,-0.019851318,0.016963258,0.0056319563,-0.0037225757
Franktown,0.0009767129,-0.014523152,0.012242524,-0.0023987226,-0.014985624,0.02382112,0.0031792498,0.0016448073,0.0093459515,-0.026013475
ElkMountain,-0.024147214,-0.010382874,0.02954354,-0.01759754,-0.022817226,0.0048453985,-0.014258552,0.00222201,-0.007959469,-0.018009666
Rayle,-0.021632398,-0.0057581267,-0.023085006,-0.004330096,-0.012131014,0.0073085683,-0.0046523483,0.010846817,0.004391511,-0.0042489995
Rossburg,8.432195e-06,-0.004392607,0.021875923,0.038592365,0.023721198,-0.007864619,0.0074107666,-0.0031291975,-0.014435688,-0.004458114
St.Lawrence,-0.0031919777,-0.04151986,0.0243445,-0.0023570221,-0.0062941345,-0.008866211,-0.027079416,0.018652119,0.010016619,-0.00012733787
RoyalLakes,0.009588219,0.00017969217,0.0073898057,0.013837588,0.026497029,0.0039376854,-0.009379729,0.018057,-0.0036468003,0.010074281
ArcticVillage,-0.021739986,-0.016013043,0.031055119,-0.012525586,-0.02030638,-0.0126627525,-0.016179876,0.00583508,-0.012962992,-0.0047796783
Blockton,0.010269154,-0.019148368,0.014617193,0.0023687063,0.028544996,0.011585726,0.004054998,0.016616069,0.013322711,0.012654775
ValleyHome,0.01195705,0.05184356,0.009276355,-0.04100789,0.014191982,-0.039145857,-0.0054609408,0.02662783,0.07945304,-0.021386635
Newberry,0.0033836176,-0.0018200882,0.00835087,0.017090876,0.022631496,0.006203549,0.005856246,0.019332536,-0.0041145557,0.0029220234
TwinForks,-0.04290382,-0.0030495485,0.020320276,-0.016682556,-0.016262492,-0.0016851408,-0.020007135,0.0055394503,-0.023018228,0.0022229403
Winnett,-0.0129718445,-0.019613076,0.031042725,-0.0075063445,-0.023422783,0.0017092061,0.00057301373,0.002271055,-5.8811158e-05,-0.010748165
MountCroghan,-0.016386628,0.0007848058,-0.018845633,0.0036267643,-0.006922317,0.0021464417,0.0019074848,0.0064579197,0.01386487,-0.009371895
DewyRose,-0.020751685,-0.005100052,-0.017268242,0.0053390814,-0.0039352607,0.012522366,-0.002935849,0.0069270646,0.012539555,-0.008937555
Palestine,-0.00042789234,-0.003467129,0.021694861,0.032734547,0.023549654,-0.005657951,0.005994666,-1.5897676e-06,-0.0135924285,-0.003874055
PortLions,-0.03050244,-0.010829045,0.033422172,-0.011412136,-0.023793109,-0.0097733075,-0.020089893,0.0022782893,-0.019668225,-0.0010065618
DecaturCity,0.01348035,-0.020376451,0.009766222,0.004352009,0.031818453,0.010720127,0.007235061,0.01956034,0.017365238,0.015174547
MindenCity,-0.019196697,-0.003660619,0.030136997,0.011993398,0.006541416,-0.017975472,-0.018744104,-0.034564435,-0.044651937,-0.03909125
CrystalBay,-0.027998077,0.010522524,0.02013546,-0.023322867,-0.02063105,-0.017910229,-0.029343726,0.0070352163,-0.018389933,-0.0010719257
Buffalo,-0.00093249197,-0.04278138,0.012132688,-0.0103943795,0.005787403,0.00030559674,-0.028881727,0.02100983,0.012447003,0.0030966038
SanCristobal,-0.017887114,-0.0077060834,-0.0077549163,-0.024751557,0.007261539,-0.00013214722,-0.0127430055,0.0058255694,-0.00432619,-0.0116886
DavisCity,0.0115225855,-0.017584492,0.009694339,0.0030811105,0.030879205,0.011011613,0.006294208,0.0179586,0.014272621,0.012695349
Custar,0.0058519295,-0.010453405,0.018308481,0.0392242,0.022507776,-0.007748198,0.021064764,-0.009396188,-0.017822534,-0.006609407
Hyannis,-0.01069605,-0.021782182,0.026318753,-0.0062828427,-0.011878728,0.0077287946,-0.0041976636,0.00708511,-0.001110516,-0.0012068332
Alger,0.0065978235,-0.0026672706,0.03180319,-0.034798004,-0.06702245,-0.026662705,-0.019670945,0.023614442,-0.020617044,-0.00054355327
MaryhillEstates,0.00583157,0.03522448,-0.030377112,0.06273702,0.026180731,-0.008495692,0.004735556,0.03449359,-0.010177025,0.014003851
Trinway,-0.007305264,-0.003996151,0.0021685325,0.030737251,0.015613008,0.0012600897,0.019313037,-0.0020109524,0.0036847908,-0.031669524
Broadview,-0.007843807,-0.01695603,0.024326948,-0.010262238,-0.017386924,0.016171306,0.0066868598,0.0061895056,0.005998997,-0.006915581
Crouch,0.0097800195,0.002914932,0.0071124127,-0.029818285,-0.03236912,-0.0067244573,-0.005712921,0.018026391,0.014650897,-0.044378847
Funk,0.010452199,-0.035029773,0.012596688,-0.00090433814,0.003390895,0.01838083,0.0019158872,0.015952494,0.019435557,0.027322285
Gainesville,-0.01902514,-0.002646236,-0.017848622,-0.011416947,0.008033329,0.024431879,0.008221089,0.014393581,0.014904609,0.022981878
Ratcliff,0.0005003455,-0.004804833,-0.0029143943,-0.017218133,0.013073662,0.005990336,0.012567507,0.015356929,0.0061181425,0.021410955
SanSimon,-0.029152542,-0.0020184414,0.0071326615,-0.024593849,-0.0060131224,-0.0046335044,-0.015054222,0.009898999,-0.005759469,-0.0022252947
Offerle,-0.012393846,-0.008231302,0.02024215,-0.007930386,-0.0005577205,0.005668251,-0.005613337,0.008463855,0.00022113323,0.014997587
Amberg,-0.011884624,-0.016163511,0.00883012,0.007850135,0.007872339,-0.005423559,-0.036442805,-0.013279879,-0.019900668,-0.024805693
Howard,-0.009647635,-0.002641461,0.008058067,0.03472087,0.018831829,-0.005046887,0.013387802,-0.0040273294,-0.004665214,-0.022437831
Latty,0.0074530854,-0.0069498145,0.021622315,0.04343946,0.02645108,-0.010325284,0.017424142,-0.0087970365,-0.018110685,-0.004330083
Ensign,-0.0118852295,-0.00715311,0.017473675,-0.0084936805,0.0027849711,0.0071708323,-0.003445043,0.009640367,-0.0016458652,0.015577848
Wynot,0.028737374,-0.048444558,0.020662883,0.011635566,0.011123041,0.018174445,0.0005772103,0.01568565,0.027411519,0.031394217
Grayridge,0.0009547785,-0.001688433,-0.0022591888,0.014854355,0.013747357,0.005449669,-0.00944373,0.021472905,-0.0043717227,0.025680004
SugarBushKnolls,-0.015765619,0.003615987,0.0054498925,0.06806027,0.033278946,-0.018376695,0.0033503296,-0.010833468,-0.040744226,-0.045141794
Medon,0.0008389873,-0.0039118202,-0.011774781,0.000736702,0.005409247,0.013548703,0.01636179,0.019574853,0.014500772,0.024175039
Nageezi,-0.022644669,0.0022479042,0.002267327,-0.030710405,0.0015813264,0.00045857573,-0.02023163,0.01452393,-0.013225566,-0.003467966
Buckhead,-0.022496277,0.00018615555,-0.028277785,0.00082627474,-0.017318092,0.0015227596,-0.008964425,0.012857765,0.006309402,0.0012888229
Metaline,0.012702496,-0.0076090954,0.012500249,-0.027034543,-0.028297521,-0.009444547,-0.01588889,0.021515168,0.0019396071,-0.031463243
MiddleVillage,-0.004400657,-0.014028721,0.0055914046,0.0091717895,0.01370235,-0.0036280814,-0.03633186,-0.011996241,-0.017618267,-0.020596791
Beaman,0.04762135,-0.029466394,-0.004604841,0.021419195,0.036857758,0.0127625475,-0.006158941,0.01818899,0.015458879,0.039285496
Choptank,-0.011050761,0.0010118415,-0.04789873,0.01946658,-0.0051699933,0.026290229,-0.0045901975,-0.029318815,0.013561623,-0.02550309
Carney,-0.0131724635,-0.013717197,0.010859687,0.0077628857,0.008392852,-0.0029248025,-0.038144056,-0.01725593,-0.024191229,-0.026545716
Calpine,-0.008076457,0.017798968,0.022447944,-0.019874673,-0.018181728,-0.014700317,-0.027773416,0.013884243,0.0043386165,-0.027773641
Slick,-0.0061412086,-0.0059733074,0.00811487,-0.019336998,0.0051454385,0.015505586,0.018566648,0.012504214,0.0053638928,0.015764808
Cowgill,0.0050924495,-0.0061605414,0.008770646,-0.0042778715,0.02506868,0.0058066705,0.0058807693,0.018463334,0.007161073,0.008719983
Hebron,0.022800539,-0.025337983,-0.003788237,0.040048104,0.030568266,-0.022970377,-0.034769516,0.00679145,-0.01767053,0.0019203399
Banner,0.022931283,-0.018608797,0.014880891,0.026013188,0.027598735,-0.01720228,0.00092467444,0.018226774,-0.0068582967,0.014313358
Mina,-0.023498252,-0.012066231,0.029339569,-0.017082566,-0.017319554,-0.009128868,-0.018468479,0.010629929,-0.011531239,-0.012687038
Hebo,-0.0015245887,-0.0008637986,0.024562,-0.02837844,-0.041459072,-0.008300202,-0.016062455,0.019361148,-0.0061603743,-0.019984784
Frost,0.03998109,-0.040046666,0.0022160485,0.010056132,0.021789562,0.020607162,-0.008270877,0.01614179,0.020045834,0.02467238
Layton,-0.048345104,-0.0020136766,0.010053723,-0.010524151,-0.033016637,-0.020581752,-0.026915237,-0.0019671284,-0.03093012,0.009508304
Proberta,-0.006593748,0.0056049703,0.0145326145,-0.03216973,-0.006536928,-0.005411944,-0.006616176,0.011263315,0.029611176,-0.019941518
FountainN'Lakes,0.019777173,0.0059050317,0.0065425476,0.03931039,0.040283907,-0.020944387,-0.010449603,0.037543565,-0.00034644455,0.015304318
Weldona,-0.0129927825,-0.015115758,-0.005808133,-0.02043027,-0.0016759876,0.00053758535,-0.009931851,0.013137903,-0.0023324406,0.010938036
GreenBank,-0.019026779,-0.0139912395,0.010451233,-0.0021912663,7.753074e-05,0.0152290175,0.033775035,0.0017766764,0.015071142,-0.020338725
ConceptionJunction,0.0091451295,-0.014872158,0.013651881,-0.0007740164,0.023266621,0.009622298,0.002012491,0.01750683,0.009403494,0.012161069
NewGrandChain,0.0026533634,-0.00037896633,-0.0018437407,0.010949292,0.013381877,0.0037644694,-0.0024547703,0.020134872,0.0005026422,0.01488833
Warba,-0.0013366443,-0.025199026,0.0027948618,-0.00044119352,0.01571632,0.0045607886,-0.022121219,0.009529054,0.0018142553,-0.008024765
CopperCity,-0.01752663,-0.013439948,0.014350363,-0.003358584,-0.0030686758,-0.0007862707,-0.029914936,-0.004345326,-0.012857279,-0.015815651
BaldHeadIsland,-0.028422551,-0.008095021,-0.0077470513,0.006540099,-0.01681555,-0.006517064,-0.0004799253,0.007273024,-0.008278932,-0.004422427
LosCerrillos,-0.020293286,-0.00033713784,-0.0031834508,-0.019972287,0.009203404,-0.0029163205,-0.0074346317,0.015028554,-0.018812181,-0.003695832
ComancheCreek,-0.018955316,-0.011417831,0.030740542,-0.016019946,-0.010820999,0.011699011,-0.0033234232,0.0010277997,-0.004988588,-0.017783614
Modoc,0.0006929039,-0.0017098719,0.019282248,0.0262691,0.022360912,-0.0038660343,0.0066350135,0.007359264,-0.011596584,-0.00157298
WestSunbury,-0.017918587,0.0063080643,0.0127307065,0.022900647,0.012647315,-0.0065509034,0.023733372,-0.020499725,-0.0033187405,-0.04526441
Barnum,0.042311873,-0.039805617,0.006418716,0.014620941,0.03490543,0.018121542,-0.0019065844,0.021529553,0.02283183,0.036753558
BelleriveAcres,0.046152912,0.027993966,-0.0013501932,0.045810275,0.071589164,-0.023079414,-0.02103204,0.05684417,-0.019287705,0.044621523
Mokane,0.01647483,-0.014163566,0.013265882,-0.009368131,0.017002383,0.005286901,0.0014054234,0.023220198,0.006702243,0.010693287
Camargo,-0.0151629485,-0.0016685651,0.017409815,-0.0062949043,0.005937483,0.0064062225,-0.00025832467,0.007419329,-0.009201523,0.01824731
Michiana,-0.003084916,0.018249532,0.01051409,0.045341834,0.018673338,-0.043271054,-0.01775948,-0.0022573476,-0.037830353,-0.0060129366
Doland,0.0024503046,-0.037347134,0.027711738,-0.0030770127,0.0058354144,-0.0054166303,-0.026472509,0.02051083,0.009148588,0.006571496
Kline,-0.02662191,-0.0010599267,-0.012837334,0.00966689,-0.010391207,0.0002354905,-0.0030541753,0.013945246,-0.000580456,-0.0031161988
FortBridger,0.0001268331,-0.024951203,0.018303618,-0.02952459,-0.018109437,-0.0056804996,-0.023724677,0.03145683,-0.0113907885,-0.012809679
Thor,0.04717313,-0.035120286,0.00013039634,0.015456222,0.033000406,0.018842777,-0.0034940604,0.019873887,0.020341307,0.037403263
Bendon,-0.013444044,-0.007462028,0.0080231,0.004204382,0.00688641,-0.004818536,-0.03332313,-0.01348312,-0.020166708,-0.01900319
Sayner,-0.0073778173,-0.016522866,0.0045285504,0.0041021975,0.0109088775,0.00133863,-0.036533915,-0.0054440964,-0.010220629,-0.016394697
Riverview,-0.02954818,-0.004166411,-0.013584727,-0.006684736,-0.0026483976,0.01259411,-0.0025241151,0.009275115,-0.010174467,0.015657373
Gravity,0.011018417,-0.021379627,0.0130257225,-0.0008653585,0.030055894,0.014384293,0.0009810147,0.019221889,0.017488172,0.015544401
Mulkeytown,0.00963122,0.0024826664,0.005727846,0.006396722,0.020732744,0.006038722,6.6885725e-05,0.022867216,-0.00080584333,0.016674876
Gilboa,0.0045738504,-0.007685225,0.01736931,0.042532243,0.02284292,-0.009523744,0.019840183,-0.0073922705,-0.017509136,-0.0057132887
Blacksville,-0.0018625887,-0.008543021,-0.007533434,0.032730736,0.0072162,0.011496837,0.043396186,-0.0059586554,0.023207456,-0.023165993
Kennedy,-0.0057831933,-0.032995466,0.012985924,-0.022682592,0.0122576095,0.0080306465,-0.023205351,0.018995404,0.0069698854,-0.0073554926
LochArbour,-0.006407055,0.020612035,-0.07437839,0.021204406,-0.016640026,0.047714453,0.0100750355,-0.08717442,-0.0060022413,-0.0088898465
Brookhurst,0.0035076602,-0.014516966,0.031977106,-0.014182996,-0.023828793,0.011667388,0.0074698427,0.0041808304,0.009997772,-0.0071172877
IronBelt,-0.009381702,-0.015714874,0.0020677007,-0.0018896585,0.004574043,0.003954598,-0.025839297,-0.00096654193,-0.0019112503,-0.015278174
Amoret,0.00221261,-0.0119851865,0.0069129025,-0.013422116,0.0070118937,0.016001595,0.003959334,0.017949503,0.012093177,0.00613856
NespelemCommunity,0.015909921,-0.002715494,0.006453193,-0.028418506,-0.01270402,-0.008278392,-0.016019575,0.031791624,0.0042965515,-0.035501517
MapleGrove,-0.017495552,-0.0072137746,0.010415551,0.0029532858,0.00418389,-0.0051342277,-0.03439486,-0.015033552,-0.022545768,-0.019679496
ElCombate,-0.06157021,-0.0069009275,0.042761836,-0.017894717,-0.02620003,-0.019360976,-0.043463107,-0.0025651788,-0.051267333,0.017699707
SouthCarrollton,0.006647908,0.007804319,-0.011971268,0.015724877,0.01679037,0.014209508,0.014247426,0.02579081,0.014042018,0.02220335
TyghValley,0.011662452,-0.0005312785,0.009022548,-0.038801383,-0.041432705,0.009461624,-0.015131622,0.027943447,0.0027006385,-0.02907335
Dale,-0.008528089,-0.003968948,0.011281033,-0.026107114,0.013084788,0.01625421,0.017922947,0.01440105,-0.0054431353,0.014070616
Gerrard,-0.03243754,-0.0025726964,0.022337176,-0.020446189,-0.00893523,-0.0045720874,-0.014312772,0.0064277593,-0.0062654424,-0.005310605
Stockett,0.0014612366,-0.014756452,0.023040544,-0.0032162087,-0.03161614,0.013013458,0.022610605,-0.0018213203,0.012202111,-0.0046415585
Kokhanok,-0.027769072,-0.0121915005,0.034042668,-0.014603869,-0.021577181,-0.010939391,-0.022887044,0.0049713054,-0.016946375,-0.004559835
Barnesville,-0.0024182599,0.003817605,-0.011112643,0.008428824,0.012842708,0.0424401,0.009709644,-0.06343478,-0.0035681718,-0.06841429
TheRock,-0.023485478,0.0014133713,-0.012922934,0.004405101,-0.008517792,0.0037848693,-0.00449081,0.014347594,0.013660199,0.009770607
PointIsabel,0.004239692,-0.005219647,0.01740782,0.035120927,0.021177795,-0.009834438,0.007399575,0.0012368581,-0.021024778,0.0025375132
Elko,-0.021748323,-0.00033045746,-0.016529314,0.010040187,-0.013377038,-0.00155112,-0.0027364783,0.012060762,0.0028619536,-0.0029679781
Walton,0.03137865,-0.034293886,0.009147157,-0.0069260136,0.027112015,0.024969168,0.019841455,0.021813188,0.04422721,0.04366795
BrantLakeSouth,0.008741143,-0.041457146,0.02352064,0.0025750378,0.009860172,-0.0012100555,-0.023583194,0.020153321,0.011195795,0.012766164
Braxton,-0.021848269,-0.0073012807,-0.016632011,-0.021844538,0.0055553727,0.023463624,0.0066975337,0.015064964,0.0017409752,0.020478949
Anawalt,-0.01771418,-0.0068318965,-0.008663075,-0.00051453145,-0.0019426375,0.018549677,0.01747775,0.0063314736,0.013239683,-0.009679591
VanVoorhis,-0.00090079906,-0.0025149789,-0.0070265876,0.07025785,0.02122231,0.008405375,0.051680185,-0.0150755355,0.0074941893,-0.03443499
Shambaugh,0.012955289,-0.02120404,0.014932583,-0.0024821984,0.026878348,0.012850301,-8.857809e-05,0.020213824,0.014618285,0.018603753
Shelly,0.0033482518,-0.03771396,0.0108944625,-0.017518587,0.01367158,0.010303061,-0.020714534,0.021475565,0.017162485,-0.0022359341
Sheridan,0.010557555,-0.019153388,0.014609339,0.0004982016,0.02748749,0.01182435,0.0023880524,0.017807074,0.013607316,0.013316436
Riverdale,0.009626682,-0.040446207,0.01045849,0.0010688375,0.0055621355,0.018753946,0.0041231783,0.017798053,0.023451123,0.027319437
Cooksville,0.0240705,-0.014383363,0.0067970296,0.027173072,0.026332054,-0.0066347593,-0.0038213728,0.017506808,-0.010670494,0.020629069
LakeCavanaugh,-0.0041332245,-0.016855374,0.032914463,-0.024359208,-0.035842434,-0.015042886,-0.010294348,0.012174741,-0.00861931,-0.004473354
Paxville,-0.017429426,0.003135148,-0.017484916,0.016313571,-0.00953323,-0.0022919432,0.0028710032,0.0124601545,0.0077185663,-0.0022754592
Finland,-0.020838687,-0.019407762,0.014025352,0.0014496491,0.006490195,-0.0006089619,-0.026783578,-0.0014662237,-0.015733551,-0.015427776
Chewey,-0.0026744201,-0.007584442,0.0065762526,-0.023419693,0.0065775565,0.0150987,0.015624245,0.013407172,0.0047433986,0.012282834
WilburtonNumberOne,0.001606841,0.007508566,0.039037824,-0.013032732,0.0036315382,0.008884355,0.042701807,-0.051310655,-0.003496107,-0.022200797
Cantwell,-0.020402616,-0.017227814,0.036623735,-0.013188072,-0.017316343,-0.012777758,-0.015135271,0.0039170673,-0.010719696,-0.0054944754
AliChuk,-0.026486062,-0.005890119,0.017142782,-0.02405282,-0.0064411033,-0.0090596685,-0.014192567,0.0067340964,-0.0013682982,-0.014178823
BishopHills,-0.014070673,-0.005148331,0.0073883226,-0.011096059,0.010168503,0.016546164,0.0059211235,0.0049096984,-0.0070556113,0.012863476
Modesto,0.013396973,-0.0072594127,0.008833941,0.015723644,0.02339218,0.001324891,-0.007907042,0.017941007,-0.0077729523,0.013645282
Van,-0.005858853,-0.00828064,-0.012775173,0.004803952,-0.0009177976,0.022585886,0.0303088,0.009131476,0.022199402,-0.008212838
Cecil,0.0060682646,-0.0077866404,0.021153996,0.04059061,0.025113337,-0.009904194,0.017544128,-0.01161662,-0.0207206,-0.008020512
DutchFlat,-0.015666122,0.00015655253,0.026007775,-0.012963099,-0.015806548,-0.0075572287,-0.014251902,0.009707861,-0.00075192726,-0.009411853
Portsmouth,0.025757473,-0.029107455,0.006210709,0.0075487653,0.03788983,0.02389827,0.001645814,0.01783061,0.02774676,0.032525983
TroutCreek,0.010495379,-0.013235747,0.026932927,-0.033367466,-0.031182015,0.0008095091,-0.01483495,0.024423974,-0.0031530864,-0.028325148
Otoe,0.026939973,-0.03452797,0.016977973,-0.0039257053,0.019033952,0.026388137,0.020171165,0.015552944,0.038525417,0.03438209
SprucePine,-0.018480377,-0.000791854,-0.014627063,-0.0005882772,0.00020958856,0.017276099,0.012946159,0.015303112,0.01317696,0.014791179
Palominas,-0.029920198,-0.003205128,0.0061594807,-0.025669333,0.00021899678,-0.008551445,-0.02298747,0.0051228856,0.0022433621,-0.008226391
Amherst,-0.0001621265,-0.026982151,0.018838888,-0.0022288058,-0.0032401693,0.0044256267,-0.015614789,0.017454943,0.0019819448,0.006757033
LaRosita,-0.048717435,0.0029745183,0.008343915,-0.03385392,-0.0023197376,0.009894483,-0.0014506995,-0.0027444225,-0.041045908,0.025935436
Colerain,-0.016982948,-0.005768325,-0.019124111,0.008922049,-0.0019131575,0.009319534,0.0058142953,0.00026048347,0.008245564,-0.02168484
Ramona,-0.0064414237,-0.010935361,0.019589694,-0.0102394,0.006233574,0.0044821603,-0.0075076153,0.018653061,0.0071015647,0.012594248
Halfway,0.0010349578,-0.009961038,0.007277393,-0.011674582,0.007958177,0.010726683,0.005631892,0.017953116,0.0075645484,0.0072289486
Power,-0.004002516,-0.017855618,0.024203964,-0.010746052,-0.026537213,0.0085268,0.0059739393,0.009338981,0.0053837113,-0.006676421
SilverPlume,-0.028886361,-0.0066975597,0.027185436,-0.016656883,-0.02440843,0.004881596,-0.02777019,0.0047184965,-0.016625736,-0.009603241
Denison,0.0047156774,-0.020535098,0.014449362,-0.002474243,0.013766572,0.007508802,-0.0016214553,0.0193062,0.013055454,0.014290345
JordanValley,-0.016673518,-0.005117132,0.025690502,-0.021584012,-0.013045222,-0.0074841203,-0.016062705,0.004835857,-0.00839994,-0.015092106
PortGraham,-0.03133118,-0.013339744,0.03633256,-0.010943803,-0.023785314,-0.016343849,-0.023935162,0.0040994994,-0.020922454,-0.0017932818
FlatRock,0.00024207309,-0.011394018,0.020557655,0.03647126,0.027378337,-0.008515349,0.014788981,-0.004687249,-0.018159281,-0.011134819
Hillview,0.0141308615,-0.010149503,0.0062757796,0.026796563,0.028676707,-0.0057007493,-0.0043806736,0.022184348,-0.008021246,0.015034591
Pomaria,-0.017196575,0.0029841664,-0.007739325,0.0066888705,-0.004664843,0.0029707127,0.00039887335,0.008837615,0.0063454546,-0.0098332595
Purdin,0.005935012,-0.009005771,0.011394089,-0.00082227,0.02251987,0.0035389846,0.0043382864,0.014377081,0.00642594,0.005461642
Lozano,-0.04550277,0.008672618,0.008786534,-0.036387727,-0.0023593225,0.00879994,-0.002300938,0.002938831,-0.043758385,0.025028503
Chesterfield,0.009588219,0.00017969217,0.0073898057,0.013837588,0.026497029,0.0039376854,-0.009379729,0.018057,-0.0036468003,0.010074281
Fairhaven,-9.091385e-05,0.014028596,0.023418235,-0.024456069,-0.03930711,-0.016858371,-0.024117704,0.018235175,0.0021300504,-0.016888686
HighHill,0.020706533,-0.010710673,0.013912375,0.004104006,0.024374042,-0.0032072624,-0.006125354,0.028174836,0.00059180317,0.019056669
LowellPoint,-0.027885677,-0.01667648,0.038700473,-0.011498747,-0.023018314,-0.0131922895,-0.016750807,0.0015922072,-0.014775257,0.0004723742
Wasola,0.0023230624,-0.011128262,0.0090847965,-0.011129308,0.0064866072,0.0075221006,0.00504987,0.015683612,0.0065440084,0.0069868015
Hurley,0.0026753899,-0.007113452,0.0044376515,-0.017535843,0.0034753373,0.014226217,0.010924913,0.020088147,0.011352244,0.012548362
Kennerdell,-0.016882718,0.0030667104,0.010635526,0.02304532,0.0128497705,-0.005161641,0.024548287,-0.019191708,-0.005160367,-0.043533776
Congress,-0.006718288,-0.010067998,0.015043497,0.03914553,0.025163818,-0.004577139,0.01246295,-0.006345618,-0.016175015,-0.028057469
Wessington,0.0024975932,-0.045065828,0.02549756,0.0002555754,-0.002640295,-0.006660921,-0.02438371,0.019521594,0.011161235,0.004229885
Minto,-0.021842534,-0.014579471,0.02702013,-0.015686078,-0.019692946,-0.012840936,-0.00649651,0.007186649,-0.004035849,-0.010407536
Alfarata,-0.0066729905,-0.00014589634,0.034586575,-0.011137977,0.0069144038,0.006617356,0.030404251,-0.04169714,0.0024151383,-0.039343476
Stevinson,0.014605132,0.06906892,0.013966475,-0.050182994,0.025841795,-0.044652306,-0.0057766293,0.0250365,0.08480875,-0.029136933
ArroyoHondo,-0.017887114,-0.0077060834,-0.0077549163,-0.024751557,0.007261539,-0.00013214722,-0.0127430055,0.0058255694,-0.00432619,-0.0116886
Gregory,-0.007731758,0.0064399736,0.0033559555,-0.033274435,0.024328424,0.012831306,0.022472875,0.016143948,-0.0030575967,0.01665986
MillSpring,0.0050420803,-0.011132112,0.0036160673,0.0020112924,0.007317937,0.007289269,-0.001893733,0.013847409,0.0081687085,0.0031279777
CoffmanCove,-0.025298454,-0.015695414,0.029167112,-0.011826934,-0.024725815,-0.007585413,-0.009985786,0.002491177,-0.008423463,-0.0056900354
Trego,0.0038229756,-0.02263894,-0.0055595464,0.002239734,0.02401406,0.005718984,-0.032248233,0.006359158,-0.00017428026,-0.004211635
Pantego,-0.02424272,-0.0056634783,-0.012120676,0.005225478,-0.008872974,-0.0019093279,-0.005103994,0.006633928,0.00010614097,-0.015405094
Rickardsville,0.026530681,-0.0268947,-0.0021040034,0.024478065,0.037918307,-0.011669779,-0.020835986,0.012982983,-0.00227911,0.017346742
Mullin,-0.028004292,0.0033642536,0.007648717,-0.01834956,-0.0070096105,0.010060704,0.010945424,0.0085789785,-0.019969054,0.028094878
WestMillgrove,0.0046206126,-0.010437413,0.019199854,0.04182406,0.024509132,-0.010724692,0.019409,-0.007908553,-0.0172297,-0.0073414124
Magnolia,0.02574397,-0.03156095,0.007350964,0.00948015,0.040560745,0.02062024,0.00037787296,0.017849928,0.027254824,0.033474516
GeudaSprings,-0.0015774727,-0.0074171075,0.016001109,-0.01337625,0.021442357,0.014552232,0.002633892,0.017012808,0.002383518,0.011945407
McCracken,-0.009387449,-0.014679741,0.015201561,-0.007886679,-0.0031361976,0.0043055704,-0.011693158,0.011563928,0.0013804389,0.015514715
Elida,-0.03960974,0.00081301085,0.014763934,-0.015886046,-0.0076934886,0.009745412,-0.010601104,0.0040046102,-0.026155276,0.005153081
Abanda,-0.02524603,-0.0028829689,-0.0132434135,-0.012209325,-0.0014921824,0.01811328,0.0059621492,0.009724207,0.008014291,0.0048622806
LosBarreras,-0.048717435,0.0029745183,0.008343915,-0.03385392,-0.0023197376,0.009894483,-0.0014506995,-0.0027444225,-0.041045908,0.025935436
Wardner,0.018930808,-0.009453129,0.022439618,-0.03368723,-0.038377084,-0.0028923776,-0.02099629,0.02927874,-0.00085628376,-0.030064693
Edmore,-0.0067223785,-0.03353293,0.0146476645,-0.012870676,0.0010543611,0.00015234947,-0.02418459,0.016074724,0.0050487495,-0.0011267097
Carrollton,-0.009639876,-0.0036344747,-0.019242112,-0.014560152,0.0005194674,0.016256355,0.015024836,0.017831188,0.007922907,0.026442537
AlcanBorder,-0.012706167,-0.014406664,0.021563295,-0.017395556,-0.020811252,-0.0067813993,-0.011866015,0.006503621,-0.00043728942,-0.013020944
Letcher,0.013443345,-0.04892031,0.028032668,0.002099181,0.0036206883,-0.0018137337,-0.025256224,0.020305928,0.016583305,0.011723848
Ferryville,0.020111797,-0.02209663,-0.0020848946,0.014126005,0.022547701,-0.007006698,-0.021548139,0.0064854114,4.0896237e-05,0.008626566
Broomtown,-0.020386035,0.002392156,-0.0038103794,0.003504079,-0.006050017,0.014032996,0.009315354,0.0049551027,0.013925491,-0.0022872756
GovernmentCamp,-0.014844704,-0.008262233,0.028919514,-0.019245833,-0.029838018,-0.0063319136,-0.015884416,0.009985338,-0.007938791,-0.013347036
JakesCorner,-0.030391881,-0.0111162495,0.029450456,-0.017834015,-0.020422822,-0.0007002203,-0.012839912,0.005720472,-0.006103127,-0.014121727
Truchas,-0.032128863,-0.0064757774,0.016539508,-0.0169261,-0.004420121,0.001292958,-0.0010528504,-0.003084521,-0.0054810983,-0.008874417
Rosine,0.00260272,0.007812603,-0.006054213,0.01730972,0.014919662,0.0061527793,0.015391762,0.020357063,0.0109319575,0.011168782
Shevlin,-0.006887524,-0.024848478,0.0016419798,-0.010847583,0.0046235253,0.0054124394,-0.017438274,0.016151285,0.013772048,-0.009419101
Lucan,0.018985685,-0.04619932,0.012626936,0.0046758866,0.0144530395,0.016273815,-0.009366389,0.015334738,0.020004366,0.012743692
LamarHeights,-0.0016357865,-0.00908298,0.007380791,-0.017109415,0.010061982,0.012932558,0.006881352,0.017764552,0.008623922,0.0121282535
Economy,-9.441748e-06,-0.0023057547,0.021158693,0.02873328,0.022549972,-0.0050081597,0.0066048363,0.003221773,-0.012209742,-0.0031357748
LeFlore,-0.00406881,-0.0133025935,0.0011168973,-0.021035228,-0.002289438,0.021003414,0.020734869,0.0076632123,0.010388365,0.010103806
CimarronCity,-0.0068676057,-0.00979708,0.015100902,-0.014566811,0.026580816,0.0122595355,0.012669306,0.016063055,-0.0030030478,0.031118285
Cleaton,0.00688982,0.0025943315,-0.009544058,0.013634964,0.01212814,0.013754776,0.013919929,0.022437626,0.016287858,0.014699926
Pierson,-0.002274373,-0.010178213,0.01048599,0.021329977,0.014593917,-0.012165158,-0.023949951,-0.016989496,-0.026522083,-0.021720897
Arnegard,-0.014830618,-0.027635245,0.028707411,-0.009971496,-0.016362432,-0.012917733,-0.016579336,0.013651579,-0.0013702875,-0.011829501
Kirkville,0.040596887,-0.022265496,0.005812057,0.013949605,0.03809496,0.008584195,0.003920366,0.02566456,0.019757193,0.03133892
Philo,-0.016288424,0.006658771,0.027749134,-0.02424927,-0.01975391,-0.014810508,-0.03077276,0.020993818,-0.0036128114,-0.018082704
Plainville,0.0030988995,0.023281327,-0.008502681,0.081134036,0.028743235,-0.02214241,0.006414471,0.019105153,-0.013395525,-0.0008901317
Crowley,-0.020960484,-0.006823201,0.0074606524,-0.017915642,0.008653148,0.010153976,0.00069895096,0.008097716,0.001855006,-0.00081875146
Houston,0.0009210721,-0.0106520085,-0.0053301,-0.0035734766,0.0082572745,0.007477226,0.007501445,0.018369908,0.007797805,0.032491826
Stamford,0.008705784,-0.035032604,0.0077870027,-0.0030488519,-0.0007176714,0.016077843,-0.0033390133,0.018440105,0.013789471,0.027238084
SacateVillage,0.016632855,0.011174694,-0.026215294,-0.028376762,0.08493843,-0.05595734,0.036553394,0.0030572752,0.09914473,-0.0340676
NorthHenderson,0.029521402,-0.021545533,0.008682531,0.022675449,0.033265572,-0.014475651,-0.0010007205,0.02390681,0.004903698,0.027304959
Bessie,-0.016684946,0.0008619397,0.01518849,-0.0119101275,0.014716275,0.009074654,0.002901735,0.0077985604,-0.01025203,0.020128414
Coin,0.015161578,-0.023408735,0.016065305,-0.0023991677,0.02888995,0.013352698,-0.0013948306,0.021030068,0.016162798,0.020978348
Kranzburg,0.003388376,-0.04086724,0.021250367,-0.0023457326,0.0037630966,-0.0015788398,-0.027654057,0.022305371,0.01107193,0.003885484
ChineseCamp,-0.011978124,0.0049947742,0.021650324,-0.0136445295,-0.009588568,-0.015999682,-0.018096616,0.01131544,0.016279055,-0.018576462
Orangeville,-0.021592606,0.0052187005,0.016293945,0.028436825,0.016391883,-0.010474231,0.012738656,-0.021887954,-0.019304855,-0.050226882
Salineño,-0.04834065,0.0007177394,0.014835356,-0.02413293,-0.0059010796,0.008766355,0.00017730892,-0.0019447992,-0.03830505,0.026865965
Fifty-Six,0.00025140494,-0.012888904,0.007878543,-0.009518945,-0.00081169023,0.007811089,0.0070773377,0.016578067,0.012044152,0.010498938
Bellechester,0.028441839,-0.040451996,-0.017391661,-0.0018592995,0.016649282,0.017979227,-0.018552076,0.010507101,0.013449044,0.013743497
Gu-Win,-0.018445414,0.0022962189,-0.017119918,-0.0009138507,-0.0017788874,0.015518764,0.008550272,0.014543993,0.0143268425,0.013601791
Foxburg,-0.018375589,0.00476708,0.011275666,0.019320589,0.013340988,-0.005343445,0.02104428,-0.019467877,-0.004056085,-0.043458223
JacksonLake,-0.0129927825,-0.015115758,-0.005808133,-0.02043027,-0.0016759876,0.00053758535,-0.009931851,0.013137903,-0.0023324406,0.010938036
Churchville,-0.014544581,-0.011302628,0.011378164,-0.0037065088,0.005248744,0.024670603,0.036458287,-0.007277057,0.01501021,-0.027982242
Wallingford,0.031002486,-0.04198946,0.013325787,0.010388286,0.020272944,0.016703954,-0.006937917,0.01799023,0.02110862,0.021774003
Newbern,-0.022327792,-0.0023850054,-0.013553263,-0.009908877,0.005739037,0.023871059,0.0066678603,0.010987201,0.0076557007,0.017762527
Kaltag,-0.017159685,-0.019262273,0.024727829,-0.01463644,-0.020963771,-0.010987531,-0.0027072192,0.0014056013,-0.003335411,-0.007952936
Holland,0.012217699,-0.040779117,0.0149294995,0.006803172,0.016135,0.011124304,-0.010110219,0.016011229,0.01823985,0.010490032
Amsterdam,0.018530905,-0.014750265,0.022621302,-0.0058164713,-0.03127808,0.011377591,0.013308553,0.011419531,0.017237175,-0.00756792
GoodHope,-0.002198279,0.00043997346,-0.0009744908,0.03272389,0.014572738,0.003529187,0.014851433,0.00967041,0.002250034,-0.007601948
Foley,0.019777173,0.0059050317,0.0065425476,0.03931039,0.040283907,-0.020944387,-0.010449603,0.037543565,-0.00034644455,0.015304318
Ogdensburg,0.011757544,-0.019355735,-0.0067437226,0.021321502,0.026879191,-0.010054669,-0.039030798,-0.0056553925,-0.014414022,-0.008100928
Petersburg,-0.0049437378,-0.036334682,0.013690227,-0.012415681,0.0028750554,0.00043306116,-0.025945835,0.01813446,0.0064937635,-0.0001116544
DeSoto,-0.032164674,-0.0016380068,-0.009795426,0.0036296367,-0.014515554,0.0009197999,-0.008957474,0.010035517,-0.007952559,0.0061836564
BeardsFork,-0.014065711,-0.0066417446,-0.00961945,0.009546999,-0.0011390797,0.01593537,0.024548348,0.004515882,0.016121645,-0.016418679
AlpineNorthwest,-0.008958887,-0.011954882,0.024808975,-0.023550436,-0.018850293,-0.00735585,-0.018788062,0.014786485,-0.0020193614,-0.025629815
Cataract,0.022992149,-0.022324001,-0.002869255,0.0134388115,0.023629647,-0.002279624,-0.026157167,0.0058103357,0.00084797264,0.0052940715
Oconee,0.0112027945,-0.0033895837,0.009191335,0.00889633,0.02354607,0.0042662956,-0.009167618,0.017491793,-0.006804889,0.011119372
Felton,0.004112942,-0.034643315,0.0036395434,-0.015149351,0.015158582,0.009405454,-0.024166292,0.021954866,0.017108425,0.0002564378
Millstone,-0.012428897,-0.0044932174,-0.006646173,0.00359084,-0.0018851828,0.020323584,0.024338687,0.0074071707,0.019016333,-0.002747562
KettleRiver,0.0018290671,-0.0274643,0.00233611,0.0053292043,0.024406416,0.0025272053,-0.02910351,0.0061719026,-0.002970001,-0.009979366
Whitesville,-0.024104388,-0.0025083385,-0.029146012,0.012909693,-0.008681842,0.006890914,-0.011689876,-0.00923586,0.004509582,-0.025298554
BoulderJunction,-0.009594874,-0.015026882,0.0062096356,0.00173139,0.007955252,0.0025232602,-0.033188224,-0.005485731,-0.009447695,-0.017180014
Manley,0.041275192,-0.0361674,0.013866134,-0.00037282892,0.021514969,0.03204873,0.034714118,0.015158215,0.05086798,0.04308978
Murtaugh,-0.00855137,0.008343638,0.021161864,-0.034215476,-0.023423258,-0.0051520714,-0.018718554,0.018381381,-0.009133322,-0.025642697
Teresita,-0.002441999,-0.007822079,0.005426696,-0.024154767,0.0076507167,0.016282337,0.014086112,0.013626171,0.0044635455,0.010657602
LomaMar,0.004237501,0.10568673,-0.0022568104,-0.07064197,0.016800787,-0.025966803,-0.0671404,0.037126016,0.040557317,-0.033736557
ElQuiote,-0.048717435,0.0029745183,0.008343915,-0.03385392,-0.0023197376,0.009894483,-0.0014506995,-0.0027444225,-0.041045908,0.025935436
Allen,-0.00058777427,-0.0014923677,-0.008623825,0.012234032,0.00039082766,0.022053981,0.03251307,0.009853925,0.030131994,-0.0074371817
Lidderdale,0.03452594,-0.0367044,0.01111723,0.012862816,0.035950214,0.017738214,0.0018426892,0.020270368,0.027878374,0.037190747
Packwaukee,0.022640478,-0.032305203,-0.00582224,0.026285127,0.034510918,-0.009186624,-0.03254772,0.004188279,-0.013674027,-0.0009039786
Elizabeth,0.0049734446,-0.037491366,0.0032891172,-0.0061458354,0.018122071,0.008554312,-0.02069655,0.022266032,0.018634945,0.0024945051
StarCity,0.01435057,-0.004968472,0.01196454,0.040228754,0.020678919,-0.015565061,0.008518011,0.0056383596,-0.012972508,0.010260783
Adin,-0.008869018,-0.010853905,0.024903977,-0.0150335925,-0.013438107,-0.007599997,-0.013014689,0.006561552,0.0008712706,-0.010348729
Halltown,-0.000772178,-0.010873826,0.007934049,-0.016854255,0.006796411,0.013449667,0.0074477335,0.019642342,0.011250995,0.012235148
Syracuse,0.0076683057,-0.012837791,0.012521077,-0.010670184,0.011310955,0.006495294,0.0037387926,0.0187439,0.0073393197,0.006466573
Dickens,0.029603222,-0.039132524,0.014640024,0.011857026,0.023405032,0.015480393,-0.006831883,0.01691298,0.019200252,0.024352198
MountBriar,-0.007548823,0.0015650209,0.0029644875,0.004613053,0.014414969,0.03365506,0.019763809,-0.050723247,0.004267718,-0.057516493
TallulahFalls,-0.022818811,-0.009548186,0.0020019233,-0.0019269431,-0.0044515464,0.012879884,0.0001035193,0.004106285,0.008531974,-0.009730937
Sparks,-0.010456698,-0.005307049,0.00933386,-0.019650554,0.011557395,0.015554091,0.017211553,0.012956153,-0.0018448621,0.014214056
Lenhartsville,0.0131155,0.020875411,0.04151733,-0.029668748,-0.00068596366,0.017828923,0.04780497,-0.06857316,0.007447831,-0.008204733
St.James,-0.038730927,-0.001613974,0.023151897,0.0040341653,-0.0047535202,-0.0119497245,-0.03823709,-0.022505127,-0.04212337,-0.023241524
BeaverBay,-0.02202007,-0.017404351,0.012513862,0.0037118937,0.00897795,-0.0006091221,-0.02971332,-0.0029087244,-0.019670269,-0.0125203105
Parnell,0.010642161,-0.017494084,0.013968715,-0.000106683,0.025033543,0.011166729,0.0028035557,0.01785414,0.01036504,0.012668944
EastGlobe,-0.024911882,-0.0052917185,0.010821306,-0.012268946,-0.011321,-0.010775561,-0.00924048,0.006951412,0.0008957047,-0.011402165
FernanLakeVillage,0.0274956,-0.0075290482,0.022474831,-0.038958944,-0.046772428,-0.00845212,-0.01912901,0.037191886,-0.0064584822,-0.030435385
Richey,-0.018584043,-0.0239902,0.033219844,-0.011084795,-0.016945334,-0.0105740465,-0.016112115,0.01110643,-0.003303404,-0.015033206
Hettick,0.013396973,-0.0072594127,0.008833941,0.015723644,0.02339218,0.001324891,-0.007907042,0.017941007,-0.0077729523,0.013645282
Gargatha,-0.024104388,-0.0025083385,-0.029146012,0.012909693,-0.008681842,0.006890914,-0.011689876,-0.00923586,0.004509582,-0.025298554
Strathmere,-0.02265469,0.005792926,-0.047891647,0.012655241,-0.015906543,0.027672514,-0.020745393,-0.03497574,0.008314268,-0.024684882
NewLebanon,-0.018238835,0.0018624547,0.009494588,0.01992492,0.011348367,-0.004715508,0.021369446,-0.017279176,-0.00631815,-0.042569734
Metcalf,0.016139997,-0.00623117,0.011822551,0.024530549,0.02740242,0.00031935796,-0.0034357011,0.015846506,-0.014887867,0.01493185
GlenAcres,-0.032159686,-0.0015773601,0.01252437,-0.02173638,-0.008610626,-0.0058547105,-0.012270768,0.007199009,-0.011841831,0.001900134
Gildford,-0.0040629525,-0.019440943,0.026977573,-0.0066073053,-0.022471959,-0.00257886,-0.008427748,0.015415867,0.00031470135,-0.0069196834
WestMineral,-0.0008274426,-0.009876505,0.005365521,-0.015401376,0.0085982,0.012924319,0.0050762473,0.015027218,0.010512448,0.019224787
Christine,0.0041984282,-0.039227623,0.011985998,-0.012195013,0.010493858,0.000945333,-0.027172504,0.024566095,0.014069313,-0.0024334812
Adrian,-0.028715651,-0.0007387127,0.013408042,-0.014222454,-0.0018545943,0.012333344,-0.0035806189,0.0018232714,-0.017022489,0.0110104205
GlenEchoPark,0.032146808,0.03416044,-0.004169728,0.026729062,0.068497606,-0.0058555226,-0.015238825,0.042160947,-0.017989269,0.033587843
Leslie,0.022195548,-0.018361455,0.008399915,-0.0043301363,0.018227668,0.002497418,-0.003550829,0.030472357,0.0063665495,0.018764466
DiamondBluff,0.02783015,-0.036086705,-0.019354101,0.00077535,0.019938216,0.013842259,-0.018543178,0.012680688,0.0125064505,0.011932041
Sanborn,-0.004498073,-0.038852695,0.014734708,-0.010836871,5.6821853e-05,-0.001156661,-0.02490165,0.019587234,0.009930142,0.0021225032
CollegeCity,0.01741193,0.019039955,0.038461898,-0.04307268,0.0066911504,-0.0090487655,-0.007907538,0.007844782,0.051374253,-0.00065329287
EagleRock,0.00022132508,-0.011336727,0.007469056,-0.01688291,0.002858666,0.0122824935,0.0096012745,0.015844535,0.011368171,0.01138767
Kettlersville,-0.0019798994,-0.002709813,0.018286826,0.039226346,0.020791693,-0.008227374,0.0154119395,-0.001790891,-0.009115566,-0.008915653
Moore,-0.0072238934,-0.011728976,0.01717365,-0.01994327,-0.015136492,0.002668892,-0.007967634,0.008248611,0.004994071,-0.028795503
Notchietown,-0.0026940953,-0.0063531906,0.0047913003,-0.017712632,0.012665871,0.01192626,0.02009165,0.01459904,0.0035800966,0.014998054
Neahkahnie,-0.0148873525,-0.0033376026,0.02700645,-0.025534073,-0.04399508,-0.006888921,-0.016769603,0.013425843,-0.013769508,-0.013433474
Garfield,-0.009833746,-0.008720529,0.020448327,-0.0107907355,-0.0024601282,0.0051349993,-0.007445084,0.011093715,0.0010376456,0.015071504
Miami,0.006754888,-0.003933984,0.009141737,-0.006049233,0.021432633,0.0026268,0.0015503013,0.021382099,0.0031044008,0.012093426
Louise,-0.010907726,-0.0029113814,-0.020856004,-0.00872191,0.0007265785,0.019461492,0.018348522,0.015130639,0.0055266796,0.039730903
LambsGrove,0.048465356,-0.027585514,-0.0053851735,0.022021087,0.04599377,0.018422816,-0.00037619285,0.02239508,0.015258259,0.039460346
BarnesCity,0.045900885,-0.027151713,-0.0009423602,0.021931756,0.042872965,0.012241164,0.001013503,0.024645137,0.017608667,0.03702664
Seboyeta,-0.03290112,-0.004048482,0.013842144,-0.022092527,-0.014933515,0.0012915349,-0.014842074,0.012899669,-0.019324215,-0.0071144607
Glenford,0.0004514306,-0.0018006922,-0.0068028765,0.039476946,0.01825424,0.002737433,0.018318526,0.006911177,0.0035143907,-0.018540783
ValleySprings,-0.0010306272,-0.012180309,0.008416405,-0.015083366,0.0012020853,0.013678452,0.010248507,0.015617528,0.011255644,0.0084310025
Renick,0.008131834,-0.007869819,0.010778475,-0.005468764,0.016334945,0.0027384162,-0.0016663588,0.019895015,0.0052535795,0.012248822
Dunreith,0.00030664913,-0.0005259606,0.013976768,0.025143951,0.022602936,-0.00074126176,0.002653368,0.013267302,-0.01449975,0.0013412897
Tupelo,-0.004683043,-0.0012320143,-0.008677942,0.014666592,0.005872684,0.004731057,-0.0063822446,0.021045478,-0.0010398322,0.0414637
Grandin,0.0037180572,-0.043103587,0.009023066,-0.013436231,0.014287705,0.0026178446,-0.029398039,0.024057714,0.014259428,-0.00033134967
MorganHeights,0.0027125743,-0.016277276,-0.013083938,-0.028795244,0.0034394236,-0.0042580143,-0.017031943,0.029801328,-0.008095608,0.016561199
SierraVillage,-0.015932323,-0.001356137,0.022910697,-0.009164953,-0.0140282735,-0.006795401,-0.015124584,0.006980856,0.0103012165,-0.013796936
Sisquoc,-0.009378072,0.010598192,0.028943025,-0.01805633,-0.014649088,-0.020568753,-0.0062388605,0.0055348575,0.0084165875,-0.0041062078
BigArm,0.015626611,-0.010633526,0.025279323,-0.03453698,-0.017834319,-0.0009894031,-0.01975895,0.03389555,-0.0017043074,-0.015236803
MasonCity,0.0066330717,-0.039311886,0.015619507,0.0042711026,0.0027619228,0.014403436,0.0030468095,0.015407363,0.021102244,0.0226975
Norris,-0.013721715,-0.025677402,0.027553966,-0.009220397,-0.012686532,0.002952444,-0.008801532,0.009800032,0.004838734,-0.008166704
Sarahsville,-0.0013624383,-0.0062134927,0.0012026497,0.020126749,0.011779824,0.0056530004,0.028152918,0.0029228495,0.01298648,-0.026326286
Linndale,-0.01044916,-0.0072798994,0.015137075,0.08862808,0.04846064,-0.022755174,0.0053295013,-0.016612012,-0.06206383,-0.06588382
Albrightsville,-0.006981923,0.006867827,0.042587932,-0.03324098,-0.004055431,0.0031240848,0.019230884,-0.039652865,-0.004882047,-0.018418465
Lehigh,-0.006848209,-0.007987992,0.017808992,-0.0051636267,0.0074478085,-0.0021317606,-0.0043369965,0.017733583,0.0049967715,0.0110780485
Binford,-0.00606385,-0.037747543,0.015865678,-0.013441245,-0.0014024458,-0.0003655851,-0.021997204,0.018597256,0.008299226,-0.0020277025
Palisade,-0.00028358027,-0.025854446,0.004251763,0.0027467555,0.019954493,0.002467899,-0.025679944,0.010210606,0.00056485814,-0.007460008
Keller,-0.02413136,-0.003919596,-0.027174626,0.013340552,-0.008592565,0.008084724,-0.012010969,-0.009012847,0.0037271578,-0.02427846
Eldon,-0.0026744201,-0.007584442,0.0065762526,-0.023419693,0.0065775565,0.0150987,0.015624245,0.013407172,0.0047433986,0.012282834
Lodoga,-0.013481113,-0.012389237,0.032022275,-0.019130198,-0.024275782,-0.006516695,-0.019181825,0.012569262,-0.011779727,-0.012157242
WhiteCloud,0.015691606,-0.020457791,0.013763481,0.002072832,0.020706337,0.007128993,-0.0022384636,0.021795059,0.008087674,0.020995004
Tecopa,-0.023179302,-0.007722312,0.03371611,-0.010429529,-0.025967631,-0.0089391945,0.002411589,0.0061702435,-0.012397334,-0.004925755
Twining,-0.013045405,-0.0070974515,0.014208322,0.0106314765,0.005005822,-0.015344476,-0.033431944,-0.027102465,-0.032285485,-0.03200364
Roslyn,-0.004080461,-0.037288237,0.020074824,-0.003766051,-0.0027241283,-0.0044883597,-0.02315953,0.020497667,0.008811953,0.000901885
StandingRock,-0.02473956,0.0017023077,-0.010802245,-0.0007998681,-0.0053685363,0.013421359,0.006613995,0.0060436684,0.0062747775,0.004945416
Orrville,-0.022075774,0.0001419494,-0.013153565,-0.005992344,0.0007023363,0.024692219,0.006678814,0.009009368,0.009777092,0.018449541
ElCaminoAngosto,-0.04550277,0.008672618,0.008786534,-0.036387727,-0.0023593225,0.00879994,-0.002300938,0.002938831,-0.043758385,0.025028503
Fredericksburg,-0.0019169295,0.00076104864,0.009893086,0.022291351,0.017362298,0.00064543996,0.0077274395,0.015662283,-0.004647132,-0.0010856497
NewBaltimore,-0.018943364,-0.012384312,0.011148012,0.01648526,0.015729947,0.011872071,0.030271385,-0.011972158,0.005721294,-0.03410762
PilotMound,0.04524258,-0.033718225,-0.0007517,0.020040626,0.040199824,0.016545523,0.002810496,0.024193492,0.019105073,0.03575272
Shongaloo,-0.012523832,-0.011856948,-0.01114449,-0.014185502,0.0011068353,0.016398646,0.014686533,0.012258642,0.0055155307,0.019694887
Newtown,0.008757247,-0.012023957,0.009808914,0.001407665,0.026472813,0.007859299,0.0036690221,0.014404984,0.0120073585,0.007720481
Melvin,-0.032677937,0.0014260662,0.01087414,-0.019595027,-0.009883982,0.011136201,0.00702679,0.006334709,-0.020405069,0.025099909
HorseshoeBeach,-0.04136639,-0.0014571927,0.0065360656,-0.0061286115,-0.019332197,-0.0111708045,-0.005791703,0.010430433,-0.020398576,0.008886266
Sunshine,-0.019607753,-0.014471956,0.028922105,-0.015272656,-0.036762327,0.019363748,-0.016145809,0.007387433,-0.017150493,-0.013503577
Idledale,0.016318515,-0.014001396,0.0091425795,-0.0033380913,-0.045275234,0.030551095,0.0150147835,0.010605312,0.0011588552,-0.015989443
Sauget,0.046405192,0.028964372,-0.011693083,0.013457863,0.06414803,-0.0051763337,-0.007979027,0.057311274,-0.021188848,0.050346024
SwanLake,0.0010067257,-0.016815752,0.022018664,-0.02468307,-0.018086435,-0.0026940638,-0.019631818,0.016699389,-0.0013155333,-0.021802578
OldMillCreek,0.030195363,-0.032883607,-0.008108135,0.08205873,0.04021449,-0.058064397,-0.05321076,-0.0031640115,-0.06747752,-0.0036810134
Casa,-0.00056093914,-0.01403867,0.00076094246,-0.009281555,0.0015400838,0.008518622,0.008904291,0.016696146,0.011291768,0.015705476
Silverstreet,-0.017977873,-0.0010482814,-0.013614219,0.0021047147,-0.0045237523,0.0078018424,0.0038595493,0.008578294,0.010533404,-0.004149353
Soham,-0.03583971,-0.0027033226,0.015881158,-0.017401822,-0.0055909837,0.008668056,-0.012256795,0.004189257,-0.019962654,-0.005580706
Sedgewickville,0.00477789,-0.00953493,0.0038158034,0.0008183473,0.006754697,0.010380054,0.0016542517,0.016905777,0.007873141,0.009763485
Orlando,-0.005800653,-0.0062439507,0.0141818235,-0.010098497,0.021233784,0.012368952,0.013312637,0.014480562,-0.0023570685,0.020078849
McDougal,0.000967966,-0.003206535,-0.004283476,0.014961274,0.0119151,0.0068513225,-0.0107882405,0.0201102,-0.0023032196,0.029436603
Haverhill,0.050583143,-0.029790133,-0.003743616,0.01999503,0.04257359,0.015785733,-0.0021417348,0.021286827,0.017793681,0.04125061
Tooleville,0.008068834,0.0304255,-0.00019085035,-0.029269269,0.0060861926,-0.03757949,0.012390368,0.011276194,0.044423718,-0.026105464
Lavina,-0.005297672,-0.018088415,0.02470204,-0.0074906973,-0.021401253,0.014350758,0.0115263425,0.00441876,0.0058578174,-0.00588754
McIntosh,-0.011054026,-0.032511234,0.020655753,-0.008359946,-0.014056985,-0.009637008,-0.02024196,0.015852405,0.0058710827,-0.005746107
MeadowviewEstates,0.00583157,0.03522448,-0.030377112,0.06273702,0.026180731,-0.008495692,0.004735556,0.03449359,-0.010177025,0.014003851
Winton,-0.008591728,-0.017981466,0.01308334,-0.001147983,0.009202056,0.005662559,-0.016752884,0.0060766474,-0.0029585457,-0.01231865
Utopia,-0.039018057,-0.0026702015,0.011906056,-0.010630314,-0.008839514,0.009530273,0.0015192811,0.002216003,-0.029518384,0.02685966
Winstonville,-0.0031138572,-0.009214371,-0.018230375,0.013774946,0.00087394536,0.009818748,0.001403354,0.016001012,-0.0024625084,0.039095208
Muscotah,0.008707555,-0.02376473,0.014894134,-0.003822237,0.011408091,0.010788136,-0.002055164,0.019299816,0.014210257,0.018839277
Burdette,0.0028280574,-0.0026074147,-0.00906465,0.01155014,0.008963936,0.005091045,-0.00026798528,0.024707953,0.0006580985,0.035629235
LaTour,0.0077207354,-0.008394835,0.005382642,-0.017246366,0.014968692,0.014567166,0.0037832404,0.0231814,0.0068564783,0.0063872207
IronCity,-0.0136278225,0.004054605,-0.01384197,0.008735523,-0.0013527172,0.012025703,0.011952012,0.013888819,0.0131127825,0.012555492
Woolsey,-0.0024705029,0.019806948,-0.024898943,0.039890952,-0.017595382,-0.0039378344,0.017126858,0.012801498,0.033099122,0.02374698
Lisbon,-0.011709905,-0.011018359,-0.014684441,-0.011296918,0.0011091338,0.0182467,0.015472506,0.012668386,0.006659242,0.024375886
Bromide,-0.009666646,-0.0063663684,0.0014125769,-0.014504927,-0.0014527951,0.011451609,0.014397638,0.0064297463,0.0039035773,0.012384507
SanLorenzo,-0.033962995,-0.0037332736,0.020826053,-0.01852195,-0.014591871,-0.00045663482,-0.017076481,0.0064133685,-0.020875389,0.0019639255
Delavan,0.038132448,-0.041121826,0.0036388505,0.009230642,0.023080839,0.020711204,-0.011749469,0.016685195,0.018311284,0.02222731
Rondo,-3.8141385e-05,-0.00922959,-0.011163583,0.007507242,0.0016298372,0.008525838,0.0033239122,0.019377977,0.0011307033,0.03656273
Antares,-0.028166575,-0.008599777,0.028658072,-0.018586239,-0.02036619,-0.011802653,-0.0060094832,0.008568285,-0.003625671,-0.014886074
Selfridge,-0.010432939,-0.033637032,0.019934671,-0.00892129,-0.01283869,-0.010658369,-0.02134919,0.017337281,0.00874041,-0.004520318
Lohman,0.013787761,-0.015108084,0.01294393,-0.0074529224,0.014410607,0.006475081,0.0040805642,0.022536308,0.009235409,0.010077741
Wainiha,-0.028310401,-0.0106490925,0.026418079,-0.012722283,-0.02165918,-0.009362144,-0.020865353,0.0033453284,-0.020971127,-0.0006836465
Force,-0.016480096,-0.000493843,0.013613749,0.0043014335,0.0077649765,-0.0022878046,0.014780801,-0.018269861,0.00072843937,-0.03849851
Robeline,-0.020231359,-0.008998727,-0.010186641,-0.020079926,-0.00061135914,0.022324674,0.007582835,0.010781691,-0.0016553163,0.022210795
Stuart,-0.0074848044,-0.008275674,0.00042632586,-0.019414853,0.0012275625,0.015935544,0.017173415,0.0068080826,0.002563955,0.013321459
FalconMesa,-0.048370153,0.0016444114,0.016592205,-0.024277914,-0.0066534975,0.010775532,4.0471554e-05,-0.0019758707,-0.03437398,0.024271028
WestGlacier,0.013601365,-0.017885612,0.015670745,-0.022940166,-0.021488568,-0.0017950253,-0.02618363,0.023980478,0.0023369743,-0.033763304
SaltRock,-0.006425519,0.010587077,-0.020695051,0.02141358,0.0022066627,0.016438346,0.017539239,0.0045184228,0.023179386,-0.022822568
Troutdale,-0.020193646,-0.006070904,-0.007636819,-0.0014073913,-0.005119478,0.02108952,0.018515693,0.0056899376,0.013860096,-0.00982889
Florissant,-0.019406555,-0.01279048,0.018171674,-0.019909091,-0.01931348,0.009832887,-0.014799868,0.0069575007,-0.009812442,-0.015598518
Parkdale,0.041688543,-0.020041766,-0.00074216706,0.00027020648,0.024991862,0.0008506585,-0.00833763,0.044760514,0.0058540665,0.04335463
PumpBack,-0.002826858,-0.004711304,0.0027502591,-0.028568344,0.009595728,0.0154984575,0.014494001,0.013939986,0.0015094454,0.009963274
GeneAutry,-0.010750851,-0.006824857,0.0039972183,-0.01316417,0.0033192732,0.010784747,0.011448706,0.009545662,-0.0006141028,0.020072374
Rebecca,-0.03039811,-0.004109754,-0.011718693,0.0027170037,-0.020033555,-0.0040980903,-0.010226325,0.012793611,-0.009617516,0.006476907
GrassValley,0.009102208,0.0046405857,0.013806239,-0.04125846,-0.03873035,0.004592952,-0.007141714,0.03104402,0.005566941,-0.028136598
Coxton,-0.011027831,-0.0007536735,-0.005120124,-0.0003836844,-0.0013388608,0.017428692,0.017908098,0.0029779926,0.017907983,-0.011164964
Woodbine,-0.004136635,-0.011497304,0.019632334,-0.012952958,0.0047176033,0.005622323,-0.007933294,0.01984835,0.0090232855,0.013556877
Barclay,-0.009171615,0.0024624027,-0.046301793,0.002930409,-0.0060046404,0.05260845,0.0026170092,-0.039232977,0.020106329,-0.026978081
Steen,0.021046568,-0.043454546,0.01413833,0.00946375,0.023971826,0.017580003,-0.00945776,0.014624554,0.018999726,0.013951085
Smithboro,0.01273737,0.004610194,0.010391329,0.004237796,0.026246767,0.0013532778,-0.007915161,0.02175579,-0.0071105794,0.008838125
Starrucca,-0.0132256765,-0.0017060685,0.030257598,-0.02349669,-0.00801745,-0.001925682,0.015461136,-0.026541378,-0.0032362225,-0.022577943
Mansfield,0.0038830552,-0.04331801,0.025556535,-0.0007241403,0.0010939011,-0.003814317,-0.026308956,0.0200337,0.011804948,0.006737618
FrenchCamp,-0.018928854,-0.0036283047,-0.014564979,-0.016046979,0.0027925186,0.016984062,0.00954021,0.017156415,0.008394319,0.01877404
Farnam,0.0008353886,-0.0320092,0.01745399,-0.0007646342,-0.0025007674,0.012193026,-0.0025980596,0.013888037,0.015358976,0.016777024
Burkittsville,-0.007548823,0.0015650209,0.0029644875,0.004613053,0.014414969,0.03365506,0.019763809,-0.050723247,0.004267718,-0.057516493
OldShawneetown,0.0059103663,-0.0011885532,0.0012817336,0.012900019,0.016757632,0.007057571,-0.0015602646,0.021405196,0.0049806787,0.013869871
Albert,-0.0069163693,-0.011488432,0.018187724,-0.010248006,-0.0015484304,0.005360078,-0.010651924,0.012469721,0.0010988372,0.0146049345
NorthLawrence,-0.011163512,-0.010083654,0.008533173,0.044039045,0.024578175,-0.004319194,0.0036489246,-0.006523678,-0.01571858,-0.041523438
Lewisville,-0.0005901305,-0.006735305,0.00012271106,0.02003458,0.011255428,0.010367278,0.032880854,0.00088388997,0.015150332,-0.026326345
MockingbirdValley,0.00583157,0.03522448,-0.030377112,0.06273702,0.026180731,-0.008495692,0.004735556,0.03449359,-0.010177025,0.014003851
Bern,0.009806397,-0.0254482,0.016244667,-0.006541772,0.008674116,0.015153062,0.0005437032,0.015874503,0.019214004,0.020948797
Combs,-0.009864108,-0.0026948627,-0.009459104,0.0054923296,-0.0022175908,0.020546384,0.02493715,0.009492216,0.021309337,-0.0019510511
HolyCross,-0.020304631,-0.01513575,0.028416775,-0.015545243,-0.013540017,-0.0076161474,-0.01583954,0.004170379,-0.008570561,-0.00943271
Burgoon,0.0028911745,-0.01133255,0.01831166,0.040886328,0.025626775,-0.010530778,0.017527912,-0.0063681942,-0.01923452,-0.0091373185
Neskowin,-0.0109369,0.0017015935,0.02813361,-0.02967055,-0.044748228,-0.009509298,-0.021723,0.018054456,-0.011849116,-0.015833896
Alvordton,0.0050251205,-0.011019275,0.024133466,0.04128429,0.023360716,-0.011011784,0.016724553,-0.017461428,-0.029661288,-0.013728597
Coburn,-0.0087073045,-0.0031699627,0.03536349,-0.015495701,0.004856423,0.0049536154,0.029037343,-0.028579587,0.00345447,-0.03694506
Cannelburg,0.0019847443,0.00058593677,0.005835526,0.019940138,0.02178678,0.0048458492,0.008013021,0.019728519,-0.002461346,0.0026738278
MissionHill,0.028376909,-0.04928173,0.019345172,0.013684974,0.01590801,0.016870383,-0.004844915,0.017028825,0.023529394,0.030652925
Coffey,0.00843646,-0.011923146,0.009573341,0.00286081,0.029345956,0.00988532,0.0053157457,0.017454345,0.0073991586,0.011259444
Manitou,-0.016613279,0.0016652012,0.013642256,-0.018293312,0.015765823,0.012240531,0.005284281,0.008674253,-0.0134124085,0.025058044
Deming,-0.0075372844,-0.015529055,0.027983923,-0.020023454,-0.033469833,-0.020142145,-0.0064425734,0.011049815,-0.007669477,-0.0063618827
GoldenValley,-0.013162566,-0.029578872,0.027940929,-0.0107316,-0.013827366,-0.013314699,-0.01791741,0.013972199,0.0015822821,-0.008728423
WestPoint,0.015274589,-0.012290304,0.013365683,0.010986485,0.025625136,-0.0058691264,0.0055001406,0.018564837,-0.00027503818,0.013930964
Jolly,-0.014779068,0.0043299706,0.0090431785,-0.025010452,0.014876563,0.01637674,0.012835708,0.0073711206,-0.013509061,0.021864297
Wendell,0.006936625,-0.04170635,0.007981208,-0.00289015,0.015046212,0.0051264944,-0.02625522,0.022209736,0.01794635,0.0015086854
Volin,0.028376909,-0.04928173,0.019345172,0.013684974,0.01590801,0.016870383,-0.004844915,0.017028825,0.023529394,0.030652925
LimeRidge,0.014876661,-0.023720015,0.00048089764,0.020433975,0.026901674,-0.010174645,-0.027550776,0.0042855986,-0.005391452,-0.001964287
Rehrersburg,0.009027603,0.015061175,0.0048215385,0.001001935,0.007382396,0.030915383,0.0385062,-0.06641472,0.0028906155,-0.017793085
Scotland,-0.010539189,0.0007208006,-0.036771312,0.020365546,0.001263491,0.017121142,0.006995928,-0.014773307,0.014124384,-0.026875252
McKnightstown,-0.011397353,0.0041509513,0.014440232,-0.0024598897,0.008772404,0.020462863,0.027238697,-0.039748196,0.009511675,-0.039447915
Istachatta,-0.02861759,0.0007706757,0.0012389414,-0.0053564943,-0.028073166,-0.02089104,0.0017750326,0.0069038984,-0.016500985,0.007729376
Adamsburg,-0.012512836,0.016871434,-0.007933954,0.07122785,0.026318176,-0.0066416026,0.04062045,-0.027377894,-0.009593505,-0.044732384
DesArc,0.0059413025,-0.012149092,0.0041220174,-0.0004802159,0.0069058477,0.00762532,0.0013772193,0.01387363,0.011847178,0.0017283241
Weinert,-0.02199065,0.0024592965,0.00834812,-0.01904035,0.0052348757,0.012621905,0.009748835,0.004882262,-0.021237362,0.022484168
BuckCreek,0.020355554,-0.013253653,0.013286073,0.034555346,0.02431831,-0.00776004,0.010135088,0.010101902,-0.025375243,0.01896733
Lookeba,-0.013940011,-0.0011437447,0.016139103,-0.011997132,0.011314447,0.009592138,0.003976815,0.010482715,-0.008098432,0.020473767
Barronett,0.009468004,-0.02315519,-0.00862947,0.008849974,0.02880201,0.004705714,-0.035869118,0.006783862,-0.0034260314,0.002234064
Longstreet,-0.015735526,-0.0053728027,-0.009950391,-0.019653656,0.00064632844,0.021201467,0.012387402,0.012145257,-0.0014392649,0.022661576
PinionPines,-0.023874499,-0.008866821,0.02012426,-0.031081876,-0.013092877,-0.011714249,-0.0026918983,0.01834007,0.0074712574,-0.013692946
Rosalie,0.027349792,-0.044629835,0.018450275,0.014134466,0.022927482,0.01566131,0.005417017,0.018687304,0.026722081,0.037202004
Streeter,-0.008345791,-0.032512408,0.017247455,-0.009115327,-0.009286405,-0.0064163543,-0.019027395,0.017340954,0.008593421,-0.0018597781
Fidelis,-0.02954818,-0.004166411,-0.013584727,-0.006684736,-0.0026483976,0.01259411,-0.0025241151,0.009275115,-0.010174467,0.015657373
Kittrell,-0.010141559,-0.0011323591,-0.01945807,0.002914141,-0.00685676,0.01723753,0.019636827,-0.008293742,0.011002237,-0.021635987
Ogema,-0.0011732366,-0.016387273,0.0007995588,0.0052195736,0.015158392,0.00249031,-0.03169823,-0.0032420424,-0.0076275514,-0.010723373
Butlerville,-0.004015144,0.013704458,-0.003221392,0.036097303,0.019276602,-0.0006705745,0.00330282,0.015997969,-0.0027546175,-0.0034696537
Whitehorse,-0.010726593,-0.03321175,0.023939373,-0.009406219,-0.013316993,-0.008780857,-0.017663581,0.017052583,0.008782667,-0.0061836117
LittleSioux,0.031025384,-0.04045219,0.014754255,0.014131664,0.037413534,0.015560453,0.0063468954,0.018923808,0.029114857,0.03702641
Mendon,0.007241721,-0.007241987,0.010863033,-0.004081167,0.022468382,0.0021821412,0.003863783,0.018560557,0.0033325164,0.010442025
BurrOak,0.00361181,-0.028278738,0.013199638,-0.0070756515,-0.0020716996,0.012704474,-0.004543355,0.01661781,0.019399203,0.02210331
JunctionCity,-0.03033972,-0.0009959158,-0.012784411,-0.0007711237,-0.011792536,0.00706729,-0.012990501,0.011374001,0.0017910727,0.0035020562
Woolstock,0.047270007,-0.034844477,-0.0014604431,0.017493526,0.032059748,0.017623814,-0.0064603393,0.018731903,0.018471677,0.036994454
Golovin,-0.024683647,-0.013363092,0.038543504,-0.01762174,-0.018520378,-0.009041487,-0.017979426,0.0022142036,-0.016683605,-0.007037523
Hannasville,-0.018238835,0.0018624547,0.009494588,0.01992492,0.011348367,-0.004715508,0.021369446,-0.017279176,-0.00631815,-0.042569734
Circleville,0.0054336577,-0.022685925,0.015098782,-0.005051752,0.008806027,0.010152694,-0.0035816007,0.017406857,0.014995984,0.015600782
Freistatt,-0.0025762038,-0.009750675,0.008341356,-0.018600896,0.0045301802,0.012226579,0.008364598,0.017043116,0.009959092,0.012023044
St.Louis,-0.010897965,-0.005668097,0.00863525,-0.017914824,0.0059215585,0.014981008,0.018101973,0.009628803,-0.00096584443,0.013514163
Reedy,-0.0042730863,-0.0036983215,-0.015509166,0.012594078,0.0037491033,0.019144984,0.026191372,0.00074709556,0.022644065,-0.023552034
Fultonham,0.0016166031,-0.0036534846,-0.0035191628,0.036527857,0.020168958,0.0033398778,0.022859091,0.0056731766,0.0061540497,-0.022219118
Idanha,-0.009896576,-0.012275415,0.028439319,-0.018707857,-0.029076375,-0.006169669,-0.020870265,0.011550426,-0.004768506,-0.016849542
Vincent,0.04717313,-0.035120286,0.00013039634,0.015456222,0.033000406,0.018842777,-0.0034940604,0.019873887,0.020341307,0.037403263
Venango,-0.0010375916,-0.028074162,0.018787831,-0.0015552941,-0.0034864736,0.00425103,-0.013263491,0.017895445,0.0033904181,0.0057513183
Salamonia,0.0028635853,-0.005214287,0.023128826,0.034856763,0.025177995,-0.0068489644,0.008824394,-0.0022407852,-0.0139128445,-0.0020671159
Rulo,0.014178863,-0.023818994,0.015465805,-0.0026787901,0.014739272,0.010338976,-0.0007059359,0.020754436,0.012218,0.022131898
Palmetto,-0.023750857,-0.0069517386,-0.008085152,-0.013905512,-0.0038550189,0.013195079,0.0006699142,0.0103823915,-0.005920564,0.027292773
GreenSpring,-0.009142061,-0.00046267355,0.004317629,0.015494518,0.01533131,0.015881501,0.0386108,-0.027517978,0.011650005,-0.03945029
